%YAML:1.0
---
opencv_ml_svm:
   format: 3
   svmType: C_SVC
   kernel:
      type: CHI2
      gamma: 5.0625000000000009e-01
   C: 1.2500000000000000e+01
   term_criteria: { iterations:10000 }
   var_count: 76
   class_count: 3
   class_labels: !!opencv-matrix
      rows: 3
      cols: 1
      dt: i
      data: [ 1, 2, 3 ]
   sv_total: 1005
   support_vectors:
      - [ 5.12077928e-01, 5.26687562e-01, 6.15797222e-01, 6.43848479e-01,
          1.72487035e-01, 6.17790639e-01, 8.79296213e-02, 8.79296213e-02,
          1.83410645e-02, 2.73710489e-01, 9.98336077e-03, 1.49750412e-02,
          6.65557384e-03, 1.24792010e-02, 6.65557384e-03, 4.99168038e-03,
          1.91347748e-02, 3.32778692e-03, 8.31946731e-03, 4.99168038e-03,
          1.58069879e-02, 1.58069879e-02, 1.41430944e-02, 2.16306150e-02,
          4.15973365e-03, 2.91181356e-02, 1.49750412e-02, 9.15141404e-03,
          1.08153075e-02, 6.65557384e-03, 1.66389346e-03, 1.83028281e-02,
          1.66389346e-02, 5.24126440e-02, 1.58069879e-02, 1.33111477e-02,
          1.66389346e-03, 5.82362711e-03, 2.16306150e-02, 4.99168038e-03,
          4.99168038e-03, 6.65557384e-03, 2.49584019e-03, 8.31946731e-04,
          0., 1.49750412e-02, 1.66389346e-02, 4.99168038e-03,
          4.15973365e-03, 8.31946731e-04, 5.82362711e-03, 9.15141404e-03,
          5.82362711e-03, 4.15973365e-03, 3.32778692e-03, 1.66389346e-03,
          1.08153075e-02, 2.41264552e-02, 2.49584019e-03, 8.31946731e-03,
          5.82362711e-03, 5.82362711e-03, 1.66389346e-03, 4.99168038e-03,
          2.74542421e-02, 2.49584019e-03, 2.99500823e-02, 1.29783690e-01,
          9.98336077e-03, 0., 0., 9.89184678e-01, 8.31946731e-04,
          9.94176388e-01, 5.82362711e-03, 0. ]
      - [ 4.50485766e-01, 3.11747044e-01, 2.44338453e-01, 5.31001575e-02,
          4.56103176e-01, 4.50485766e-01, 3.67504209e-01, 3.67504209e-01,
          1.69372559e-03, 1.17117114e-01, 0., 0., 0., 9.00900923e-03, 0.,
          1.80180185e-02, 1.80180185e-02, 9.00900923e-03, 0.,
          9.00900923e-03, 9.00900923e-03, 9.00900923e-03, 4.50450443e-02,
          1.80180185e-02, 4.50450443e-02, 1.80180185e-02, 9.00900923e-03,
          9.00900923e-03, 2.70270277e-02, 9.00900923e-03, 9.00900923e-03,
          9.00900923e-03, 1.80180185e-02, 2.70270277e-02, 0.,
          1.80180185e-02, 2.70270277e-02, 0., 2.70270277e-02,
          9.00900923e-03, 0., 9.00900923e-03, 0., 0., 9.00900923e-03, 0.,
          1.80180185e-02, 9.00900923e-03, 9.00900923e-03, 0.,
          2.70270277e-02, 0., 9.00900923e-03, 9.00900923e-03,
          9.00900923e-03, 0., 0., 0., 0., 1.80180185e-02, 0.,
          2.70270277e-02, 0., 0., 2.70270277e-02, 0., 7.20720738e-02,
          2.25225225e-01, 1., 0., 0., 0., 0., 0., 1., 0. ]
      - [ 5.80903888e-01, 6.12300754e-01, 7.25915015e-01, 6.38002753e-01,
          1.95541903e-01, 7.25999773e-01, 2.42820099e-01, 2.42820099e-01,
          3.91021729e-01, 3.01724821e-01, 1.26824323e-02, 1.40092093e-02,
          6.16561295e-03, 1.58042610e-02, 9.01428238e-03, 1.20580662e-02,
          1.79895423e-02, 1.16678374e-02, 4.44860710e-03, 4.99492697e-03,
          2.03699376e-02, 1.44774839e-02, 2.90330127e-02, 9.13135055e-03,
          7.99968746e-03, 1.70139708e-02, 1.51798958e-02, 6.47779601e-03,
          9.09232814e-03, 4.64372104e-03, 3.16085224e-03, 1.71700623e-02,
          1.04971509e-02, 2.66135950e-02, 6.24365872e-03, 1.38531178e-02,
          3.66814947e-03, 1.28775463e-02, 1.47896670e-02, 6.36072736e-03,
          3.27792089e-03, 3.51205817e-03, 2.92671495e-03, 2.92671495e-03,
          2.69257789e-03, 9.32646543e-03, 1.70529932e-02, 4.91688121e-03,
          5.50222443e-03, 2.49746349e-03, 8.81916843e-03, 4.44860710e-03,
          4.95590409e-03, 2.49746349e-03, 2.26332620e-03, 1.91212050e-03,
          6.43877313e-03, 8.78014509e-03, 2.49746349e-03, 1.13166319e-02,
          4.05837828e-03, 2.77062366e-03, 3.04378360e-03, 3.16085224e-03,
          8.97525996e-03, 3.08280648e-03, 2.82915793e-02, 1.78841799e-01,
          7.80457340e-05, 0., 2.34137196e-03, 9.95161176e-01,
          2.41941772e-03, 9.99414682e-01, 5.85342990e-04, 0. ]
      - [ 3.13333333e-01, 3.22829127e-01, 3.81260514e-01, 6.49579823e-01,
          1.84593841e-01, 3.81260514e-01, 4.44363832e-01, 4.44363832e-01,
          2.13623047e-03, 5.71428575e-02, 0., 5.00000007e-02, 0.,
          1.42857144e-02, 1.42857144e-02, 7.14285718e-03, 7.14285718e-03,
          7.14285718e-03, 7.14285718e-03, 7.14285718e-03, 7.14285718e-03,
          0., 4.28571440e-02, 3.57142873e-02, 7.14285718e-03,
          2.85714287e-02, 2.85714287e-02, 2.85714287e-02, 3.57142873e-02,
          2.85714287e-02, 0., 0., 7.14285718e-03, 5.00000007e-02,
          5.71428575e-02, 3.57142873e-02, 7.14285718e-03, 7.14285718e-03,
          0., 7.14285718e-03, 1.42857144e-02, 0., 1.42857144e-02, 0., 0.,
          7.14285718e-03, 7.14285718e-03, 2.85714287e-02, 0.,
          1.42857144e-02, 7.14285718e-03, 2.85714287e-02, 2.14285720e-02,
          2.14285720e-02, 7.14285718e-03, 0., 7.14285718e-03,
          1.42857144e-02, 0., 0., 3.57142873e-02, 1.42857144e-02, 0.,
          2.14285720e-02, 2.85714287e-02, 0., 2.14285720e-02,
          1.00000001e-01, 0., 0., 0., 1., 0., 1., 0., 0. ]
      - [ 2.62618393e-01, 2.80262291e-01, 3.41524899e-01, 6.39893591e-01,
          2.34470531e-01, 3.41524899e-01, 4.82929885e-01, 4.82929885e-01,
          9.44519043e-03, 9.85460430e-02, 0., 1.11470111e-01,
          6.46203570e-03, 4.84652678e-03, 9.69305355e-03, 3.23101785e-03,
          3.23101785e-03, 8.07754416e-03, 1.61550893e-03, 0., 0.,
          3.23101785e-03, 1.61550883e-02, 6.46203570e-03, 3.23101785e-03,
          5.33117950e-02, 1.61550893e-03, 3.23101785e-03, 3.06946691e-02,
          1.13085620e-02, 4.84652678e-03, 1.61550893e-03, 0.,
          1.77705977e-02, 0., 1.29240714e-02, 4.84652678e-03, 0.,
          8.07754416e-03, 1.61550893e-03, 0., 1.61550893e-03, 0.,
          3.23101785e-03, 3.23101785e-03, 4.84652678e-03, 8.07754416e-03,
          5.65428101e-02, 1.61550893e-03, 0., 1.13085620e-01, 0.,
          8.07754416e-03, 8.07754416e-03, 0., 0., 1.29240714e-02,
          6.46203570e-03, 4.84652678e-03, 1.61550893e-03, 0.,
          8.07754416e-03, 1.61550893e-03, 6.46203570e-03, 6.13893382e-02,
          1.61550893e-03, 5.97738288e-02, 1.98707595e-01, 0., 0.,
          1.29240707e-01, 8.67528260e-01, 3.23101785e-03, 9.06300485e-01,
          9.36995149e-02, 0. ]
      - [ 5.17528653e-01, 5.16611159e-01, 5.64957440e-01, 6.68812454e-01,
          8.91453922e-02, 5.65046251e-01, 6.31618500e-01, 6.31618500e-01,
          4.04357910e-03, 6.79245293e-02, 0., 3.77358496e-03,
          3.77358496e-03, 0., 0., 4.15094346e-02, 1.50943398e-02, 0.,
          1.88679248e-02, 1.88679248e-02, 7.54716992e-03, 3.01886797e-02,
          0., 7.54716992e-03, 1.13207549e-02, 0., 1.50943398e-02,
          3.77358496e-03, 7.54716992e-03, 0., 1.13207549e-02,
          3.77358496e-03, 7.54716992e-03, 1.05660379e-01, 6.03773594e-02,
          1.50943398e-02, 2.26415098e-02, 9.05660391e-02, 1.13207549e-02,
          3.77358496e-03, 0., 1.50943398e-02, 1.13207549e-02,
          7.54716992e-03, 3.77358496e-03, 0., 0., 0., 3.77358496e-03, 0.,
          3.77358496e-03, 3.77358496e-03, 0., 0., 3.77358496e-03, 0.,
          1.50943398e-02, 3.77358496e-03, 3.77358496e-03, 7.54716992e-03,
          3.77358496e-03, 7.54716992e-03, 0., 1.50943398e-02,
          3.77358496e-03, 3.77358496e-03, 6.03773594e-02, 2.37735853e-01,
          1.13207549e-02, 0., 1.50943398e-02, 9.50943410e-01,
          2.26415098e-02, 1., 0., 0. ]
      - [ 3.65867823e-01, 2.65814573e-01, 2.15521663e-01, 6.39845058e-02,
          4.07697886e-01, 3.65867823e-01, 7.13242650e-01, 7.13242650e-01,
          6.17980957e-03, 1.38271600e-01, 4.93827183e-03, 1.23456791e-02,
          7.40740728e-03, 4.93827183e-03, 2.46913591e-03, 1.48148146e-02,
          0., 7.40740728e-03, 9.87654366e-03, 7.40740728e-03,
          4.93827183e-03, 1.48148146e-02, 3.95061746e-02, 1.48148146e-02,
          1.72839500e-02, 2.46913582e-02, 1.23456791e-02, 1.48148146e-02,
          1.23456791e-02, 1.72839500e-02, 9.87654366e-03, 7.40740728e-03,
          9.87654366e-03, 1.48148146e-02, 1.97530873e-02, 1.48148146e-02,
          1.23456791e-02, 2.96296291e-02, 1.48148146e-02, 4.93827183e-03,
          2.46913591e-03, 7.40740728e-03, 1.72839500e-02, 7.40740728e-03,
          0., 7.40740728e-03, 2.22222228e-02, 4.93827183e-03,
          2.46913591e-03, 9.87654366e-03, 9.87654366e-03, 2.46913591e-03,
          7.40740728e-03, 7.40740728e-03, 1.48148146e-02, 7.40740728e-03,
          2.46913591e-03, 1.72839500e-02, 7.40740728e-03, 1.23456791e-02,
          7.40740728e-03, 1.48148146e-02, 2.46913591e-03, 7.40740728e-03,
          2.46913582e-02, 0., 5.67901246e-02, 1.95061728e-01,
          9.87654328e-01, 0., 0., 0., 1.23456791e-02, 1.70370370e-01,
          8.29629600e-01, 0. ]
      - [ 1.53946444e-01, 1.85956001e-01, 2.47277796e-01, 6.09644651e-01,
          3.77933711e-01, 2.47476861e-01, 7.56801248e-01, 7.56801248e-01,
          6.01196289e-03, 1.14213198e-01, 2.53807101e-03, 1.77664980e-02,
          1.26903551e-02, 2.53807101e-03, 5.07614203e-03, 1.77664980e-02,
          1.52284261e-02, 2.28426401e-02, 1.26903551e-02, 2.28426401e-02,
          7.61421304e-03, 1.26903551e-02, 2.53807101e-03, 5.07614203e-03,
          1.77664980e-02, 3.04568522e-02, 2.28426401e-02, 1.77664980e-02,
          0., 0., 7.61421304e-03, 1.26903551e-02, 1.52284261e-02,
          7.86802024e-02, 2.79187821e-02, 1.26903551e-02, 1.01522841e-02,
          2.53807101e-03, 2.53807101e-02, 1.01522841e-02, 2.53807101e-03,
          5.07614203e-03, 3.04568522e-02, 1.26903551e-02, 0.,
          1.01522841e-02, 7.61421304e-03, 0., 7.61421304e-03,
          2.03045681e-02, 1.26903551e-02, 1.77664980e-02, 5.07614203e-03,
          5.07614203e-03, 5.07614203e-03, 0., 2.03045681e-02,
          5.07614203e-03, 2.53807101e-03, 1.52284261e-02, 6.59898445e-02,
          2.53807101e-03, 0., 0., 1.77664980e-02, 0., 1.26903551e-02,
          1.49746194e-01, 1.01522841e-02, 0., 5.83756343e-02,
          9.31472063e-01, 0., 1.70050755e-01, 8.29949260e-01, 0. ]
      - [ 2.49854922e-01, 2.43612066e-01, 2.75371492e-01, 7.02822447e-01,
          1.17225006e-01, 2.75600106e-01, 7.72789359e-01, 7.72789359e-01,
          3.40270996e-03, 1.16591930e-01, 1.79372206e-02, 2.24215239e-02,
          4.48430516e-03, 8.96861032e-03, 8.96861032e-03, 3.13901342e-02,
          8.96861032e-03, 8.96861032e-03, 1.79372206e-02, 3.13901342e-02,
          1.34529145e-02, 1.34529145e-02, 1.79372206e-02, 8.96861032e-03,
          0., 4.03587446e-02, 2.24215239e-02, 8.96861032e-03, 0.,
          1.34529145e-02, 1.34529145e-02, 0., 0., 0., 0., 8.96861032e-03,
          0., 4.48430516e-03, 4.48430516e-03, 0., 0., 1.79372206e-02,
          8.96861032e-03, 4.48430516e-03, 8.96861032e-03, 0.,
          1.79372206e-02, 4.48430516e-03, 8.96861032e-03, 8.96861032e-03,
          2.24215239e-02, 4.48430516e-03, 4.48430516e-03, 4.48430516e-03,
          0., 4.48430516e-03, 4.48430516e-03, 0., 8.96861032e-03,
          4.48430516e-03, 8.96861032e-03, 0., 4.48430516e-03,
          4.48430516e-03, 4.03587446e-02, 4.48430516e-03, 6.72645718e-02,
          2.82511204e-01, 4.48430516e-03, 0., 0., 9.41704035e-01,
          5.38116582e-02, 1., 0., 0. ]
      - [ 2.26939470e-01, 2.50093788e-01, 3.02574605e-01, 6.24995708e-01,
          2.55208880e-01, 3.02574605e-01, 8.06182086e-01, 8.06182086e-01,
          1.75476074e-03, 4.34782617e-02, 1.73913036e-02, 0., 0.,
          8.69565178e-03, 0., 2.60869563e-02, 0., 8.69565178e-03, 0.,
          8.69565178e-03, 0., 1.73913036e-02, 0., 1.73913036e-02, 0.,
          8.69565178e-03, 0., 2.60869563e-02, 1.73913036e-02,
          1.73913036e-02, 8.69565178e-03, 0., 8.69565178e-03,
          1.73913036e-02, 4.34782617e-02, 8.69565178e-03, 8.69565178e-03,
          0., 0., 0., 0., 0., 0., 0., 1.73913036e-02, 8.69565178e-03,
          2.60869563e-02, 1.73913036e-02, 0., 0., 8.69565178e-03,
          3.47826071e-02, 8.69565178e-03, 8.69565178e-03, 0.,
          1.73913036e-02, 1.73913036e-02, 0., 8.69565178e-03, 0., 0.,
          8.69565178e-03, 2.60869563e-02, 0., 6.95652142e-02,
          1.73913036e-02, 7.82608688e-02, 3.13043475e-01, 0., 0.,
          6.08695634e-02, 9.39130425e-01, 0., 9.21739101e-01,
          7.82608688e-02, 0. ]
      - [ 1.63235292e-01, 1.82698965e-01, 2.58275658e-01, 6.37802780e-01,
          3.68483275e-01, 2.58275658e-01, 6.61017895e-01, 6.61017895e-01,
          2.07519531e-03, 1.91176474e-01, 0., 0., 7.35294120e-03, 0., 0.,
          1.76470593e-01, 8.08823556e-02, 0., 0., 1.10294119e-01, 0., 0.,
          0., 0., 0., 0., 0., 0., 0., 0., 0., 7.35294120e-03, 0., 0., 0.,
          0., 0., 0., 5.88235296e-02, 0., 7.35294120e-03, 9.55882370e-02,
          1.17647059e-01, 0., 0., 0., 0., 0., 0., 0., 0., 0., 0., 0., 0.,
          0., 0., 0., 0., 0., 0., 0., 0., 0., 0., 0., 0., 1.47058830e-01,
          0., 0., 5.14705889e-02, 9.48529422e-01, 0., 3.97058815e-01,
          6.02941155e-01, 0. ]
      - [ 1.98599935e-01, 1.36655867e-01, 1.38808206e-01, 5.58304608e-01,
          3.30136180e-01, 1.98599935e-01, 8.09169650e-01, 8.09169650e-01,
          8.59069824e-03, 1.27886325e-01, 1.59857906e-02, 3.01953815e-02,
          1.24333929e-02, 1.59857906e-02, 2.13143881e-02, 2.13143881e-02,
          1.06571941e-02, 1.42095918e-02, 1.24333929e-02, 1.59857906e-02,
          1.95381884e-02, 1.42095918e-02, 3.37477811e-02, 1.77619886e-02,
          1.59857906e-02, 2.13143881e-02, 1.24333929e-02, 8.88099428e-03,
          3.73001769e-02, 1.95381884e-02, 5.32859704e-03, 3.55239795e-03,
          8.88099428e-03, 3.55239795e-03, 7.10479589e-03, 1.42095918e-02,
          5.32859704e-03, 1.24333929e-02, 7.10479589e-03, 1.77619897e-03,
          1.42095918e-02, 7.10479589e-03, 1.42095918e-02, 5.32859704e-03,
          1.77619897e-03, 8.88099428e-03, 1.42095918e-02, 1.06571941e-02,
          8.88099428e-03, 8.88099428e-03, 2.13143881e-02, 3.55239795e-03,
          8.88099428e-03, 5.32859704e-03, 3.55239795e-03, 1.77619897e-03,
          0., 5.32859704e-03, 5.32859704e-03, 5.32859704e-03,
          1.77619897e-03, 7.10479589e-03, 0., 3.55239795e-03,
          2.48667859e-02, 1.77619897e-03, 3.37477811e-02, 2.04262882e-01,
          4.31616336e-01, 0., 0., 0., 5.68383634e-01, 5.48845470e-01,
          4.51154530e-01, 0. ]
      - [ 4.92758185e-01, 3.62614393e-01, 2.57641822e-01, 9.70352963e-02,
          4.67116326e-01, 4.92758185e-01, 8.31312478e-01, 8.31312478e-01,
          5.72204590e-03, 6.93333298e-02, 8.00000038e-03, 8.00000038e-03,
          8.00000038e-03, 5.33333328e-03, 5.33333328e-03, 1.60000008e-02,
          1.33333337e-02, 5.33333328e-03, 1.06666666e-02, 8.00000038e-03,
          8.00000038e-03, 1.06666666e-02, 2.13333331e-02, 1.06666666e-02,
          2.13333331e-02, 2.66666664e-03, 1.06666666e-02, 1.60000008e-02,
          2.66666673e-02, 1.33333337e-02, 5.33333328e-03, 2.66666664e-03,
          2.66666664e-03, 2.93333326e-02, 1.86666660e-02, 2.66666673e-02,
          8.00000038e-03, 2.66666664e-03, 1.60000008e-02, 5.33333328e-03,
          8.00000038e-03, 8.00000038e-03, 8.00000038e-03, 1.60000008e-02,
          0., 1.60000008e-02, 5.06666675e-02, 2.66666673e-02,
          1.60000008e-02, 5.33333328e-03, 1.86666660e-02, 5.33333328e-03,
          3.20000015e-02, 2.93333326e-02, 5.33333328e-03, 0.,
          1.86666660e-02, 1.33333337e-02, 1.60000008e-02, 8.00000038e-03,
          2.13333331e-02, 5.33333328e-03, 5.33333328e-03, 5.33333328e-03,
          1.60000008e-02, 5.33333328e-03, 4.26666662e-02, 1.81333333e-01,
          9.70666647e-01, 0., 0., 0., 2.93333326e-02, 1.09333336e-01,
          8.88000011e-01, 2.66666664e-03 ]
      - [ 3.16339880e-01, 2.53555149e-01, 2.11012080e-01, 7.93820545e-02,
          3.46900374e-01, 3.16339880e-01, 8.65628958e-01, 8.65628958e-01,
          3.02124023e-03, 2.52525248e-02, 0., 5.05050505e-03,
          5.05050505e-03, 5.05050505e-03, 1.01010101e-02, 0.,
          1.01010101e-02, 5.05050505e-03, 2.02020202e-02, 2.02020202e-02,
          1.01010101e-02, 1.51515156e-02, 4.04040404e-02, 3.03030312e-02,
          3.53535339e-02, 1.51515156e-02, 1.01010101e-02, 2.52525248e-02,
          4.04040404e-02, 2.02020202e-02, 5.05050505e-03, 5.05050505e-03,
          1.01010101e-02, 1.51515156e-02, 1.51515156e-02, 3.03030312e-02,
          2.02020202e-02, 1.01010101e-02, 5.05050505e-03, 0.,
          5.05050505e-03, 5.05050505e-03, 5.05050505e-03, 1.01010101e-02,
          0., 0., 1.51515156e-02, 2.02020202e-02, 1.51515156e-02,
          3.03030312e-02, 4.54545468e-02, 5.05050505e-03, 3.03030312e-02,
          5.05050505e-03, 5.05050505e-03, 5.05050505e-03, 0.,
          1.01010101e-02, 5.05050505e-03, 0., 5.05050505e-03,
          3.03030312e-02, 1.01010101e-02, 1.01010101e-02, 4.54545468e-02,
          0., 5.05050495e-02, 1.66666672e-01, 9.84848499e-01, 0., 0., 0.,
          1.51515156e-02, 5.25252521e-01, 4.14141417e-01, 4.04040404e-02 ]
      - [ 2.22515747e-01, 1.52930930e-01, 1.23544767e-01, 4.83387075e-02,
          4.57011223e-01, 2.22515747e-01, 8.53938878e-01, 8.53938878e-01,
          5.84411621e-03, 1.04438640e-01, 0., 3.39425579e-02,
          7.83289783e-03, 2.61096610e-03, 1.04438644e-02, 0., 0.,
          7.83289783e-03, 5.22193220e-03, 2.61096610e-03, 5.22193220e-03,
          2.61096610e-03, 2.08877288e-02, 1.30548300e-02, 7.83289783e-03,
          3.13315913e-02, 5.22193220e-03, 0., 2.87206266e-02,
          1.82767622e-02, 5.22193220e-03, 0., 5.22193220e-03, 0.,
          7.83289783e-03, 7.83289783e-03, 5.22193220e-03, 2.61096610e-03,
          1.30548300e-02, 1.82767622e-02, 2.61096610e-03, 5.22193220e-03,
          5.22193220e-03, 2.08877288e-02, 2.61096610e-03, 1.04438644e-02,
          4.96083535e-02, 2.34986953e-02, 1.56657957e-02, 7.83289783e-03,
          4.17754576e-02, 1.04438644e-02, 2.34986953e-02, 2.87206266e-02,
          7.83289783e-03, 2.61096610e-03, 7.83289783e-03, 2.34986953e-02,
          5.22193220e-03, 5.22193220e-03, 2.61096610e-03, 5.22193220e-03,
          5.22193220e-03, 7.83289783e-03, 3.13315913e-02, 5.22193220e-03,
          6.52741492e-02, 2.03655347e-01, 9.97389019e-01, 0., 0., 0.,
          2.61096610e-03, 1.56657964e-01, 8.14621389e-01, 2.87206266e-02 ]
      - [ 2.75908947e-01, 1.92363784e-01, 1.34407327e-01, 8.93388540e-02,
          5.14819205e-01, 2.75918812e-01, 8.86708915e-01, 8.86708915e-01,
          6.07299805e-03, 9.79899466e-02, 1.00502511e-02, 2.76381914e-02,
          1.75879393e-02, 0., 5.02512557e-03, 2.51256279e-03,
          2.26130653e-02, 1.00502511e-02, 1.25628142e-02, 1.75879393e-02,
          2.51256279e-03, 1.00502511e-02, 1.50753772e-02, 1.50753772e-02,
          7.53768859e-03, 2.26130653e-02, 7.53768859e-03, 7.53768859e-03,
          1.75879393e-02, 1.25628142e-02, 2.51256279e-03, 1.00502511e-02,
          2.01005023e-02, 0., 1.25628142e-02, 5.02512557e-03,
          2.51256279e-03, 2.51256279e-03, 2.01005023e-02, 1.50753772e-02,
          1.00502511e-02, 2.51256279e-03, 5.02512557e-03, 2.51256279e-03,
          0., 2.01005023e-02, 6.03015088e-02, 3.76884416e-02,
          5.02512557e-03, 1.00502511e-02, 2.26130653e-02, 2.76381914e-02,
          3.01507544e-02, 3.76884416e-02, 7.53768859e-03, 0.,
          7.53768859e-03, 1.00502511e-02, 1.00502511e-02, 1.00502511e-02,
          5.02512557e-03, 1.00502511e-02, 5.02512557e-03, 2.51256279e-03,
          1.00502511e-02, 0., 4.52261306e-02, 1.73366830e-01,
          9.74874377e-01, 0., 0., 0., 2.51256283e-02, 1.33165836e-01,
          6.45728648e-01, 2.16080397e-01 ]
      - [ 4.11022156e-01, 2.34783620e-01, 1.47024021e-01, 5.24886884e-02,
          6.31070912e-01, 4.11022156e-01, 8.95155311e-01, 8.95155311e-01,
          2.57873535e-03, 7.10059181e-02, 0., 0., 2.36686394e-02, 0., 0.,
          0., 5.91715984e-03, 0., 5.91715984e-03, 0., 5.91715984e-03, 0.,
          5.91715984e-03, 0., 0., 2.36686394e-02, 0., 5.91715984e-03, 0.,
          0., 0., 1.18343197e-02, 5.91715984e-03, 0., 0., 0., 0., 0.,
          5.91715984e-03, 1.18343197e-02, 2.95857992e-02, 1.18343197e-02,
          5.91715984e-03, 5.91715984e-03, 0., 5.91715984e-03,
          9.46745574e-02, 1.30177513e-01, 2.95857992e-02, 5.91715984e-03,
          1.18343197e-02, 3.55029590e-02, 4.73372787e-02, 4.73372787e-02,
          2.36686394e-02, 5.91715984e-03, 0., 2.36686394e-02,
          2.95857992e-02, 1.77514795e-02, 0., 1.77514795e-02,
          5.91715984e-03, 0., 1.77514795e-02, 5.91715984e-03,
          2.95857992e-02, 1.77514791e-01, 1., 0., 0., 0., 0.,
          1.18343197e-02, 5.73964477e-01, 4.08284038e-01 ]
      - [ 5.27564347e-01, 3.21361870e-01, 1.96185142e-01, 6.66333213e-02,
          6.32533014e-01, 5.27564347e-01, 9.11571264e-01, 9.11571264e-01,
          8.97216797e-03, 5.95238097e-02, 3.40136047e-03, 3.23129259e-02,
          6.80272095e-03, 0., 3.40136047e-03, 3.40136047e-03,
          5.10204071e-03, 1.70068024e-03, 3.40136047e-03, 8.50340165e-03,
          5.10204071e-03, 0., 2.04081628e-02, 2.38095243e-02,
          8.50340165e-03, 2.55102050e-02, 1.70068024e-03, 5.10204071e-03,
          1.87074821e-02, 6.80272095e-03, 1.70068024e-03, 3.40136047e-03,
          5.10204071e-03, 1.70068024e-03, 0., 3.40136047e-03,
          1.70068024e-03, 1.70068024e-03, 3.40136047e-03, 8.50340165e-03,
          1.70068024e-03, 1.70068024e-03, 5.10204071e-03, 6.80272095e-03,
          0., 3.40136047e-03, 8.67346972e-02, 8.50340128e-02,
          8.50340165e-03, 0., 5.44217676e-02, 3.40136047e-03,
          7.65306130e-02, 4.93197292e-02, 5.10204071e-03, 5.10204071e-03,
          1.70068024e-03, 8.50340165e-03, 8.50340165e-03, 3.40136047e-03,
          1.70068024e-03, 3.40136047e-03, 1.70068024e-03, 5.10204071e-03,
          5.27210869e-02, 5.10204071e-03, 5.61224483e-02, 1.85374156e-01,
          9.96598661e-01, 0., 0., 0., 3.40136047e-03, 2.04081628e-02,
          6.24149680e-01, 3.55442166e-01 ]
      - [ 6.16066992e-01, 3.82714629e-01, 2.32057869e-01, 6.41538203e-02,
          6.17475748e-01, 6.16066992e-01, 9.05339777e-01, 9.05339777e-01,
          1.57165527e-03, 9.70873795e-03, 0., 0., 0., 9.70873795e-03,
          9.70873795e-03, 0., 0., 9.70873795e-03, 9.70873795e-03,
          9.70873795e-03, 0., 0., 5.82524277e-02, 4.85436879e-02,
          6.79611638e-02, 0., 0., 9.70873795e-03, 8.73786435e-02,
          6.79611638e-02, 0., 0., 0., 9.70873795e-03, 0., 1.94174759e-02,
          9.70873795e-03, 0., 0., 0., 0., 9.70873795e-03, 9.70873795e-03,
          9.70873795e-03, 9.70873795e-03, 0., 1.94174759e-02, 0., 0.,
          9.70873795e-03, 8.73786435e-02, 9.70873795e-03, 1.94174759e-02,
          1.94174759e-02, 0., 0., 0., 0., 0., 0., 0., 1.94174759e-02, 0.,
          2.91262139e-02, 4.85436879e-02, 9.70873795e-03, 8.73786435e-02,
          1.65048540e-01, 1., 0., 0., 0., 0., 0., 8.05825233e-01,
          1.94174752e-01 ]
      - [ 5.33176482e-01, 3.22039217e-01, 1.82588235e-01, 6.57927170e-02,
          6.54946804e-01, 5.33176482e-01, 9.22254443e-01, 9.22254443e-01,
          2.67028809e-03, 1.71428565e-02, 0., 0., 0., 0., 0., 0., 0., 0.,
          0., 0., 0., 0., 7.99999982e-02, 3.99999991e-02, 2.85714287e-02,
          0., 0., 0., 5.14285713e-02, 1.14285713e-02, 5.71428565e-03, 0.,
          0., 0., 0., 2.28571426e-02, 5.71428565e-03, 2.28571426e-02, 0.,
          0., 0., 0., 0., 5.71428565e-03, 0., 0., 1.08571425e-01,
          5.14285713e-02, 0., 2.28571426e-02, 1.71428565e-02, 0.,
          6.85714260e-02, 6.85714260e-02, 5.71428565e-03, 0., 0.,
          2.85714287e-02, 0., 1.71428565e-02, 0., 1.14285713e-02, 0.,
          3.42857130e-02, 5.14285713e-02, 0., 6.85714260e-02,
          1.54285714e-01, 1., 0., 0., 0., 0., 0., 5.77142835e-01,
          4.22857136e-01 ]
      - [ 4.01574582e-01, 2.33392745e-01, 1.43731430e-01, 5.67141995e-02,
          6.47950113e-01, 4.01574582e-01, 9.29687500e-01, 9.29687500e-01,
          2.01416016e-03, 0., 0., 0., 0., 0., 0., 0., 0., 0., 0., 0., 0.,
          0., 3.40909094e-01, 2.50000000e-01, 0., 0., 0., 0.,
          2.95454532e-01, 1.13636367e-01, 0., 0., 0., 0., 0., 0., 0., 0.,
          0., 0., 0., 0., 0., 0., 0., 0., 0., 0., 0., 0., 0., 0., 0., 0.,
          0., 0., 0., 0., 0., 0., 0., 0., 0., 0., 0., 0., 0., 0., 1., 0.,
          0., 0., 0., 0., 5.37878811e-01, 4.62121218e-01 ]
      - [ 1.95018545e-01, 7.90249109e-02, 3.28563862e-02, 4.48754653e-02,
          8.27917337e-01, 1.95018545e-01, 9.33593750e-01, 9.33593750e-01,
          2.82287598e-03, 2.05405399e-01, 0., 7.02702701e-02, 0.,
          2.16216221e-02, 2.70270277e-02, 0., 1.62162166e-02,
          2.70270277e-02, 1.62162166e-02, 0., 2.70270277e-02,
          3.78378369e-02, 9.72972959e-02, 7.56756738e-02, 0.,
          6.48648664e-02, 2.16216221e-02, 5.40540554e-03, 1.18918918e-01,
          5.40540554e-02, 0., 0., 0., 0., 0., 0., 0., 0., 0., 0., 0., 0.,
          0., 0., 0., 0., 0., 0., 0., 0., 0., 0., 0., 0., 0., 0., 0., 0.,
          0., 0., 0., 0., 0., 0., 0., 0., 0., 1.13513514e-01, 1., 0., 0.,
          0., 0., 0., 5.40540554e-03, 9.94594574e-01 ]
      - [ 1.53217062e-01, 1.29411772e-01, 1.34180710e-01, 5.81751883e-01,
          1.78579167e-01, 1.54576808e-01, 9.41406250e-01, 9.41406250e-01,
          3.03649902e-03, 3.51758786e-02, 1.00502511e-02, 1.50753772e-02,
          1.50753772e-02, 0., 0., 0., 0., 0., 0., 0., 0., 0., 0., 0., 0.,
          2.01005023e-02, 0., 0., 0., 0., 0., 5.02512557e-03,
          1.00502511e-02, 0., 0., 0., 0., 0., 1.00502511e-02, 0.,
          1.00502511e-02, 0., 0., 0., 0., 0., 3.56783926e-01,
          1.80904523e-01, 0., 0., 0., 2.01005023e-02, 1.90954775e-01,
          8.54271352e-02, 0., 0., 0., 0., 0., 0., 0., 0., 0., 0., 0., 0.,
          0., 3.51758786e-02, 3.56783926e-01, 1.00502511e-02, 0.,
          1.35678396e-01, 4.97487426e-01, 9.79899526e-01, 2.01005023e-02,
          0. ]
      - [ 4.52532083e-01, 8.46776724e-01, 9.42192137e-01, 5.36493182e-01,
          5.19762993e-01, 9.42192137e-01, 2.62730449e-01, 2.62730449e-01,
          2.12097168e-03, 7.91366920e-02, 2.15827338e-02, 0.,
          2.15827338e-02, 0., 7.19424477e-03, 0., 2.15827338e-02, 0., 0.,
          0., 0., 0., 0., 4.31654677e-02, 7.19424477e-03, 7.19424477e-03,
          7.19424477e-03, 0., 0., 0., 7.19424477e-03, 2.15827338e-02,
          1.43884895e-02, 7.19424477e-03, 7.19424477e-03, 0., 0.,
          7.19424477e-03, 2.15827338e-02, 0., 7.19424477e-03,
          2.15827338e-02, 0., 0., 7.19424477e-03, 7.19424477e-03,
          7.19424477e-03, 2.87769791e-02, 1.43884895e-02, 0.,
          2.87769791e-02, 2.15827338e-02, 7.19424477e-03, 1.43884895e-02,
          7.19424477e-03, 1.43884895e-02, 0., 2.15827338e-02, 0.,
          3.59712243e-02, 7.19424477e-03, 7.19424477e-03, 7.19424477e-03,
          0., 7.19424477e-03, 7.19424477e-03, 9.35251787e-02,
          3.23741019e-01, 0., 0., 1., 0., 0., 0., 9.92805779e-01,
          7.19424477e-03 ]
      - [ 1.81770012e-01, 3.67532223e-01, 3.29023153e-01, 4.65253502e-01,
          5.12064993e-01, 3.69793326e-01, 4.18848544e-01, 4.18848544e-01,
          1.69372559e-03, 5.40540554e-02, 0., 1.80180185e-02,
          9.00900923e-03, 0., 3.60360369e-02, 0., 0., 1.80180185e-02,
          3.60360369e-02, 0., 9.00900923e-03, 9.00900923e-03,
          5.40540554e-02, 7.20720738e-02, 2.70270277e-02, 1.80180185e-02,
          0., 9.00900923e-03, 1.80180185e-02, 3.60360369e-02,
          9.00900923e-03, 0., 9.00900923e-03, 0., 9.00900923e-03,
          9.00900923e-03, 9.00900923e-03, 9.00900923e-03, 9.00900923e-03,
          0., 9.00900923e-03, 0., 9.00900923e-03, 9.00900923e-03, 0.,
          9.00900923e-03, 9.00900923e-03, 0., 0., 1.80180185e-02,
          3.60360369e-02, 9.00900923e-03, 4.50450443e-02, 0., 0.,
          9.00900923e-03, 9.00900923e-03, 0., 1.80180185e-02,
          9.00900923e-03, 0., 9.00900923e-03, 0., 0., 2.70270277e-02, 0.,
          5.40540554e-02, 2.25225225e-01, 0., 9.00900923e-03,
          9.90990996e-01, 0., 0., 0., 9.90990996e-01, 9.00900923e-03 ]
      - [ 1.80886477e-01, 4.07711327e-01, 4.39248651e-01, 5.12143672e-01,
          5.94068229e-01, 4.54967856e-01, 4.33856368e-01, 4.33856368e-01,
          1.81579590e-03, 1.34453788e-01, 0., 2.52100844e-02, 0.,
          3.36134471e-02, 3.36134471e-02, 0., 8.40336177e-03,
          8.40336177e-03, 0., 0., 1.68067235e-02, 0., 2.52100844e-02,
          8.40336159e-02, 1.68067235e-02, 1.68067235e-02, 1.68067235e-02,
          0., 1.68067235e-02, 1.68067235e-02, 1.68067235e-02, 0.,
          1.68067235e-02, 0., 0., 8.40336177e-03, 1.68067235e-02,
          8.40336177e-03, 2.52100844e-02, 8.40336177e-03, 1.68067235e-02,
          8.40336177e-03, 0., 1.68067235e-02, 2.52100844e-02, 0., 0., 0.,
          0., 8.40336177e-03, 0., 1.68067235e-02, 0., 0., 0., 0., 0.,
          1.68067235e-02, 8.40336177e-03, 0., 0., 0., 0., 8.40336177e-03,
          0., 0., 3.36134471e-02, 2.85714298e-01, 0., 0., 1., 0., 0., 0.,
          7.47899175e-01, 2.52100855e-01 ]
      - [ 2.89250940e-01, 5.22048235e-01, 5.61517835e-01, 5.12441814e-01,
          5.30356884e-01, 5.75257421e-01, 4.85428840e-01, 4.85428840e-01,
          4.24194336e-03, 1.04316548e-01, 1.07913669e-02, 5.03597111e-02,
          7.19424477e-03, 0., 7.19424477e-03, 0., 1.43884895e-02,
          7.19424477e-03, 1.07913669e-02, 7.19424477e-03, 3.59712238e-03,
          1.07913669e-02, 2.87769791e-02, 7.19424486e-02, 1.43884895e-02,
          6.11510798e-02, 2.15827338e-02, 1.07913669e-02, 1.79856122e-02,
          2.51798555e-02, 1.43884895e-02, 0., 1.43884895e-02,
          3.59712238e-03, 0., 2.51798555e-02, 1.07913669e-02,
          3.59712238e-03, 7.19424477e-03, 0., 3.59712238e-03,
          3.59712238e-03, 3.59712238e-03, 1.07913669e-02, 0., 0.,
          7.19424477e-03, 0., 7.19424477e-03, 7.19424477e-03,
          1.79856122e-02, 7.19424477e-03, 1.07913669e-02, 1.07913669e-02,
          1.43884895e-02, 3.59712238e-03, 0., 1.43884895e-02,
          3.59712238e-03, 7.19424477e-03, 3.59712238e-03, 1.43884895e-02,
          0., 1.43884895e-02, 1.79856122e-02, 7.19424477e-03,
          3.95683460e-02, 2.05035970e-01, 1.43884895e-02, 4.67625894e-02,
          9.38848913e-01, 0., 0., 1.33093521e-01, 6.69064760e-01,
          1.97841734e-01 ]
      - [ 2.20421746e-01, 5.58712542e-01, 6.87951684e-01, 5.49882829e-01,
          6.82032287e-01, 6.87951684e-01, 5.01989961e-01, 5.01989961e-01,
          2.42614746e-03, 1.25786159e-02, 6.28930796e-03, 0., 0., 0., 0.,
          0., 0., 0., 0., 0., 0., 0., 3.77358496e-02, 3.77358496e-02,
          1.88679248e-02, 0., 0., 0., 4.40251566e-02, 6.28930796e-03,
          6.28930796e-03, 0., 0., 0., 0., 1.25786159e-02, 1.88679248e-02,
          6.28930796e-03, 0., 0., 0., 0., 0., 3.77358496e-02, 0., 0.,
          8.17610100e-02, 6.28930852e-02, 1.88679248e-02, 0.,
          9.43396240e-02, 0., 8.80503133e-02, 4.40251566e-02,
          6.28930796e-03, 6.28930796e-03, 0., 0., 0., 0., 0.,
          6.28930796e-03, 0., 1.25786159e-02, 6.28930852e-02, 0.,
          8.80503133e-02, 1.82389930e-01, 0., 0., 1., 0., 0., 0.,
          3.71069193e-01, 6.28930807e-01 ]
      - [ 1.42325893e-01, 4.06152815e-01, 4.62812722e-01, 5.25726855e-01,
          7.02941179e-01, 4.69033122e-01, 5.07374704e-01, 5.07374704e-01,
          1.77001953e-03, 8.62068981e-02, 8.62068962e-03, 4.31034490e-02,
          8.62068962e-03, 0., 0., 0., 0., 8.62068962e-03, 8.62068962e-03,
          0., 0., 8.62068962e-03, 2.58620698e-02, 3.44827585e-02,
          8.62068962e-03, 5.17241396e-02, 0., 8.62068962e-03,
          8.62068962e-03, 2.58620698e-02, 8.62068962e-03, 0.,
          1.72413792e-02, 0., 0., 3.44827585e-02, 8.62068962e-03, 0.,
          1.72413792e-02, 0., 0., 0., 0., 8.62068962e-03, 8.62068962e-03,
          0., 6.89655170e-02, 4.31034490e-02, 0., 8.62068962e-03,
          2.58620698e-02, 0., 4.31034490e-02, 4.31034490e-02,
          8.62068962e-03, 0., 0., 8.62068962e-03, 8.62068962e-03, 0., 0.,
          8.62068962e-03, 8.62068962e-03, 1.72413792e-02, 2.58620698e-02,
          0., 6.03448264e-02, 1.81034476e-01, 0., 3.44827585e-02,
          9.65517223e-01, 0., 0., 8.62068981e-02, 1.55172408e-01,
          7.58620679e-01 ]
      - [ 8.80164355e-02, 4.64183301e-01, 6.27969086e-01, 5.55165470e-01,
          8.59815061e-01, 6.27969086e-01, 5.34666836e-01, 5.34666836e-01,
          6.69860840e-03, 1.18451022e-01, 6.83371304e-03, 1.82232354e-02,
          1.59453303e-02, 1.82232354e-02, 1.59453303e-02, 0.,
          2.27790438e-02, 9.11161769e-03, 2.27790442e-03, 9.11161769e-03,
          1.36674261e-02, 2.05011386e-02, 1.59453303e-02, 2.50569470e-02,
          4.55580885e-03, 3.64464708e-02, 1.82232354e-02, 1.13895219e-02,
          1.82232354e-02, 1.59453303e-02, 6.83371304e-03, 9.11161769e-03,
          1.36674261e-02, 0., 4.55580885e-03, 4.55580885e-03,
          9.11161769e-03, 1.36674261e-02, 9.11161769e-03, 9.11161769e-03,
          6.83371304e-03, 2.27790442e-03, 2.27790442e-03, 1.13895219e-02,
          4.55580885e-03, 1.36674261e-02, 9.11161769e-03, 9.11161769e-03,
          0., 2.27790442e-03, 2.73348521e-02, 1.36674261e-02,
          1.36674261e-02, 9.11161769e-03, 4.55580885e-03, 0., 0.,
          2.27790442e-03, 6.83371304e-03, 4.55580885e-03, 2.27790442e-03,
          2.27790442e-03, 4.55580885e-03, 4.55580885e-03, 2.50569470e-02,
          9.11161769e-03, 4.78359908e-02, 2.64236897e-01, 0., 0., 1., 0.,
          0., 0., 9.11161769e-03, 9.90888357e-01 ]
      - [ 6.21530004e-02, 4.27940518e-01, 5.19023061e-01, 5.33579767e-01,
          8.83818209e-01, 5.27826607e-01, 5.77939212e-01, 5.77939212e-01,
          8.98437500e-02, 1.10224187e-01, 1.23980977e-02, 2.68342383e-02,
          8.66168458e-03, 1.25679346e-02, 9.00135841e-03, 2.71739135e-03,
          1.06997285e-02, 9.51086916e-03, 9.34103224e-03, 4.75543458e-03,
          1.15489131e-02, 1.06997285e-02, 1.59646738e-02, 1.57948378e-02,
          7.81250000e-03, 2.27581523e-02, 8.15217383e-03, 6.11413037e-03,
          1.05298916e-02, 1.30774453e-02, 8.49184766e-03, 1.01902178e-02,
          8.66168458e-03, 6.79347839e-04, 2.88722827e-03, 6.79347804e-03,
          8.15217383e-03, 8.83152150e-03, 8.66168458e-03, 1.00203808e-02,
          8.49184766e-03, 3.73641308e-03, 2.20788037e-03, 8.15217383e-03,
          7.30298925e-03, 9.85054392e-03, 2.27581523e-02, 1.81725547e-02,
          9.68070608e-03, 6.79347804e-03, 2.15692930e-02, 6.79347804e-03,
          1.76630430e-02, 1.29076084e-02, 7.98233692e-03, 6.28396729e-03,
          3.22690210e-03, 5.77445654e-03, 7.47282617e-03, 7.30298925e-03,
          1.35869568e-03, 5.94429346e-03, 6.28396729e-03, 4.75543458e-03,
          1.71535332e-02, 5.77445654e-03, 5.36684766e-02, 2.98403531e-01,
          0., 1.69836960e-04, 9.99830186e-01, 0., 0., 3.39673919e-04,
          1.27377715e-02, 9.52445626e-01 ]
      - [ 7.34523013e-02, 4.59866345e-01, 5.93625605e-01, 5.47007442e-01,
          8.76786351e-01, 5.93625605e-01, 5.83640575e-01, 5.83640575e-01,
          4.07409668e-03, 9.36329588e-02, 7.49063678e-03, 1.49812736e-02,
          1.49812736e-02, 1.87265910e-02, 1.12359552e-02, 3.74531839e-03,
          7.49063678e-03, 3.74531839e-03, 2.24719103e-02, 1.12359552e-02,
          3.74531839e-03, 7.49063678e-03, 7.49063678e-03, 1.49812736e-02,
          1.49812736e-02, 6.74157292e-02, 3.74531839e-03, 1.12359552e-02,
          1.49812736e-02, 1.12359552e-02, 1.12359552e-02, 3.74531839e-03,
          1.49812736e-02, 0., 3.74531839e-03, 1.12359552e-02,
          1.12359552e-02, 0., 3.74531839e-03, 1.12359552e-02,
          3.74531839e-03, 3.74531839e-03, 3.74531839e-03, 3.74531839e-03,
          7.49063678e-03, 1.12359552e-02, 2.99625471e-02, 1.49812736e-02,
          1.12359552e-02, 2.24719103e-02, 1.12359552e-02, 1.49812736e-02,
          1.12359552e-02, 2.24719103e-02, 1.49812736e-02, 0.,
          7.49063678e-03, 7.49063678e-03, 1.12359552e-02, 3.74531839e-03,
          0., 1.49812736e-02, 3.74531839e-03, 7.49063678e-03,
          1.87265910e-02, 3.74531839e-03, 4.49438207e-02, 2.50936329e-01,
          0., 0., 1., 0., 0., 0., 0., 9.96254683e-01 ]
      - [ 2.13183150e-01, 6.70171022e-01, 6.89306080e-01, 5.08886099e-01,
          6.96203589e-01, 6.96175754e-01, 6.50820017e-01, 6.50820017e-01,
          2.15148926e-03, 7.80141875e-02, 0., 6.38297871e-02,
          2.12765951e-02, 1.41843967e-02, 0., 7.09219836e-03, 0., 0.,
          7.09219836e-03, 7.09219836e-03, 7.09219836e-03, 1.41843967e-02,
          1.41843967e-02, 2.12765951e-02, 7.09219836e-03, 2.83687934e-02,
          0., 0., 1.41843967e-02, 7.09219836e-03, 7.09219836e-03, 0., 0.,
          0., 0., 0., 0., 0., 7.09219836e-03, 2.83687934e-02,
          1.41843967e-02, 0., 0., 7.09219836e-03, 7.09219836e-03,
          7.09219836e-03, 2.83687934e-02, 4.96453904e-02, 2.12765951e-02,
          2.83687934e-02, 2.12765951e-02, 2.12765951e-02, 4.96453904e-02,
          4.25531901e-02, 1.41843967e-02, 2.12765951e-02, 0.,
          1.41843967e-02, 7.09219836e-03, 7.09219836e-03, 0., 0., 0., 0.,
          1.41843967e-02, 7.09219836e-03, 3.54609936e-02, 2.26950347e-01,
          0., 0., 1., 0., 0., 0., 2.90780127e-01, 7.09219873e-01 ]
      - [ 2.50201643e-01, 7.02711701e-01, 7.15422034e-01, 5.06438613e-01,
          6.62216663e-01, 7.32554555e-01, 6.52371466e-01, 6.52371466e-01,
          2.15148926e-03, 1.27659574e-01, 2.12765951e-02, 2.12765951e-02,
          7.09219836e-03, 0., 0., 7.09219836e-03, 7.09219836e-03, 0., 0.,
          0., 0., 7.09219836e-03, 7.09219836e-03, 2.12765951e-02,
          7.09219836e-03, 3.54609936e-02, 0., 0., 7.09219836e-03,
          1.41843967e-02, 0., 1.41843967e-02, 0., 0., 0., 0., 0.,
          7.09219836e-03, 7.09219836e-03, 0., 2.12765951e-02, 0., 0.,
          7.09219836e-03, 0., 0., 4.96453904e-02, 7.80141875e-02, 0.,
          1.41843967e-02, 2.83687934e-02, 1.41843967e-02, 5.67375869e-02,
          2.83687934e-02, 2.12765951e-02, 7.09219836e-03, 7.09219836e-03,
          1.41843967e-02, 2.83687934e-02, 7.09219836e-03, 0.,
          2.12765951e-02, 0., 7.09219836e-03, 2.12765951e-02, 0.,
          3.54609936e-02, 2.12765962e-01, 0., 0., 1., 0., 0., 0.,
          5.46099305e-01, 4.53900695e-01 ]
      - [ 1.74477130e-01, 5.49542487e-01, 4.39346403e-01, 4.50784326e-01,
          6.83267951e-01, 5.49542487e-01, 7.08138049e-01, 7.08138049e-01,
          1.83105469e-03, 5.00000007e-02, 1.66666675e-02, 8.33333377e-03,
          1.66666675e-02, 0., 0., 0., 0., 0., 0., 0., 0., 0., 0., 0., 0.,
          0., 0., 0., 0., 0., 0., 0., 8.33333377e-03, 0., 0., 0., 0., 0.,
          0., 4.16666679e-02, 4.16666679e-02, 8.33333377e-03, 0., 0., 0.,
          4.16666679e-02, 1.25000000e-01, 1.50000006e-01, 5.00000007e-02,
          2.50000004e-02, 8.33333377e-03, 0., 1.25000000e-01,
          1.25000000e-01, 1.66666675e-02, 8.33333377e-03, 0.,
          1.66666675e-02, 1.66666675e-02, 8.33333377e-03, 0., 0., 0., 0.,
          0., 0., 1.66666675e-02, 7.50000030e-02, 0., 0., 1., 0., 0., 0.,
          3.08333337e-01, 6.91666663e-01 ]
      - [ 3.68521452e-01, 4.16295707e-01, 3.72602016e-01, 3.44872802e-01,
          1.66852146e-01, 4.21926349e-01, 4.65437591e-01, 4.65437591e-01,
          4.51660156e-03, 1.38513520e-01, 3.37837846e-03, 1.01351347e-02,
          6.75675692e-03, 1.68918911e-02, 1.01351347e-02, 6.75675692e-03,
          3.37837846e-03, 3.37837846e-03, 2.02702694e-02, 6.75675692e-03,
          1.68918911e-02, 1.68918911e-02, 1.35135138e-02, 1.68918911e-02,
          1.35135138e-02, 2.02702694e-02, 3.37837846e-03, 1.35135138e-02,
          6.75675692e-03, 3.37837846e-03, 6.75675692e-03, 6.75675692e-03,
          0., 3.37837846e-03, 3.37837846e-03, 6.75675692e-03,
          1.68918911e-02, 1.35135138e-02, 1.35135138e-02, 1.35135138e-02,
          1.35135138e-02, 3.37837846e-03, 3.37837846e-03, 3.37837846e-03,
          1.35135138e-02, 3.37837846e-03, 3.37837846e-03, 3.37837846e-03,
          1.35135138e-02, 6.75675692e-03, 1.35135138e-02, 0.,
          3.37837846e-03, 0., 1.01351347e-02, 0., 0., 6.75675692e-03,
          6.75675692e-03, 1.68918911e-02, 1.68918911e-02, 1.35135138e-02,
          3.37837846e-03, 6.75675692e-03, 1.01351347e-02, 6.75675692e-03,
          7.43243247e-02, 3.07432443e-01, 0., 7.09459484e-01,
          2.60135144e-01, 3.04054059e-02, 0., 9.89864886e-01,
          1.01351347e-02, 0. ]
      - [ 2.34020442e-01, 3.04541647e-01, 3.08664322e-01, 4.92508799e-01,
          2.86240995e-01, 3.18451494e-01, 5.08246541e-01, 5.08246541e-01,
          1.78527832e-03, 1.28205135e-01, 0., 8.54700878e-02, 0.,
          8.54700897e-03, 8.54700897e-03, 0., 0., 0., 8.54700897e-03, 0.,
          8.54700897e-03, 2.56410260e-02, 8.54700897e-03, 5.12820520e-02,
          1.70940179e-02, 5.98290600e-02, 8.54700897e-03, 0.,
          8.54700897e-03, 8.54700897e-03, 0., 0., 8.54700897e-03,
          8.54700897e-03, 8.54700897e-03, 1.70940179e-02, 1.70940179e-02,
          8.54700897e-03, 1.70940179e-02, 0., 0., 0., 8.54700897e-03, 0.,
          8.54700897e-03, 2.56410260e-02, 0., 3.41880359e-02, 0., 0.,
          3.41880359e-02, 0., 8.54700897e-03, 8.54700897e-03,
          8.54700897e-03, 0., 8.54700897e-03, 8.54700897e-03, 0.,
          8.54700897e-03, 0., 8.54700897e-03, 0., 8.54700897e-03, 0., 0.,
          5.12820520e-02, 2.47863248e-01, 0., 1.02564104e-01,
          8.97435904e-01, 0., 0., 7.00854719e-01, 2.56410271e-01,
          4.27350439e-02 ]
      - [ 4.35333610e-01, 4.82774049e-01, 4.53809708e-01, 3.80668521e-01,
          1.56941697e-01, 4.90222394e-01, 5.08716941e-01, 5.08716941e-01,
          4.54711914e-03, 5.03355712e-02, 0., 1.00671137e-02,
          3.35570471e-03, 1.00671137e-02, 1.34228189e-02, 3.35570471e-03,
          6.71140943e-03, 0., 0., 3.35570471e-03, 6.71140943e-03,
          6.71140943e-03, 1.00671137e-02, 3.35570471e-03, 6.71140943e-03,
          6.71140943e-03, 3.35570471e-03, 6.71140943e-03, 3.35570471e-03,
          1.34228189e-02, 3.35570471e-03, 6.71140943e-03, 1.00671137e-02,
          3.35570471e-03, 0., 3.35570471e-03, 3.35570471e-03,
          1.67785231e-02, 1.34228189e-02, 1.34228189e-02, 1.67785231e-02,
          6.71140943e-03, 3.35570471e-03, 6.71140943e-03, 6.71140943e-03,
          6.71140943e-03, 9.06040296e-02, 8.05369094e-02, 1.00671137e-02,
          3.35570471e-03, 3.35570471e-03, 6.71140943e-03, 8.72483253e-02,
          8.38926211e-02, 1.00671137e-02, 3.35570471e-03, 3.35570471e-03,
          3.35570471e-03, 6.71140943e-03, 2.01342274e-02, 0.,
          1.00671137e-02, 1.00671137e-02, 3.35570471e-03, 2.01342274e-02,
          3.35570471e-03, 4.69798669e-02, 2.04697981e-01, 1.61073819e-01,
          3.59060407e-01, 4.53020126e-01, 2.68456377e-02, 0.,
          9.96644318e-01, 3.35570471e-03, 0. ]
      - [ 7.48216093e-01, 9.14792836e-01, 9.33501244e-01, 5.20645201e-01,
          1.98836714e-01, 9.33872998e-01, 5.26495576e-01, 5.26495576e-01,
          4.98962402e-03, 6.11620815e-03, 0., 0., 0., 0., 0., 0., 0., 0.,
          0., 0., 0., 0., 0., 0., 0., 0., 0., 0., 0., 0., 0., 0., 0., 0.,
          0., 0., 0., 0., 0., 0., 0., 0., 0., 0., 0., 0., 7.03363940e-02,
          3.97553518e-02, 0., 0., 8.86850134e-02, 0., 3.66972461e-02,
          7.03363940e-02, 0., 0., 0., 0., 0., 0., 0., 0., 0., 0.,
          1.03975534e-01, 0., 5.81039749e-02, 5.25993884e-01, 0., 0., 1.,
          0., 0., 1., 0., 0. ]
      - [ 6.63740814e-01, 9.11749363e-01, 9.74923432e-01, 5.38357854e-01,
          3.17294717e-01, 9.74923432e-01, 5.31250000e-01, 5.31250000e-01,
          3.90625000e-03, 7.81250000e-03, 0., 0., 0., 0., 0., 0., 0., 0.,
          0., 0., 0., 0., 4.57031250e-01, 2.10937500e-01, 0., 0., 0., 0.,
          2.42187500e-01, 8.20312500e-02, 0., 0., 0., 0., 0., 0., 0., 0.,
          0., 0., 0., 0., 0., 0., 0., 0., 0., 0., 0., 0., 0., 0., 0., 0.,
          0., 0., 0., 0., 0., 0., 0., 0., 0., 0., 0., 0., 0., 0., 0., 0.,
          1., 0., 0., 8.20312500e-01, 1.79687500e-01, 0. ]
      - [ 5.43323219e-01, 8.58111501e-01, 9.77884054e-01, 5.50294936e-01,
          4.42340195e-01, 9.77884054e-01, 5.41634917e-01, 5.41634917e-01,
          5.63049316e-03, 1.57181576e-01, 5.42005431e-03, 4.60704602e-02,
          5.42005431e-03, 1.35501353e-02, 1.62601620e-02, 0.,
          1.89701896e-02, 1.89701896e-02, 2.16802172e-02, 5.42005431e-03,
          1.08401086e-02, 2.16802172e-02, 8.40108395e-02, 6.23306222e-02,
          2.98102982e-02, 2.98102982e-02, 1.89701896e-02, 8.13008100e-03,
          4.87804860e-02, 1.62601620e-02, 8.13008100e-03, 2.71002715e-03,
          2.71002715e-03, 0., 8.13008100e-03, 2.16802172e-02,
          8.13008100e-03, 8.13008100e-03, 8.13008100e-03, 1.35501353e-02,
          5.42005431e-03, 0., 5.42005431e-03, 1.35501353e-02,
          5.42005431e-03, 5.42005431e-03, 1.62601620e-02, 8.13008100e-03,
          2.71002715e-03, 2.71002715e-03, 1.08401086e-02, 2.71002715e-03,
          2.71002715e-03, 5.42005431e-03, 0., 0., 0., 5.42005431e-03, 0.,
          0., 2.71002715e-03, 0., 2.71002715e-03, 2.71002715e-03,
          1.35501353e-02, 0., 2.43902430e-02, 1.40921414e-01, 0., 0., 1.,
          0., 0., 0., 1., 0. ]
      - [ 5.40109813e-01, 8.53301942e-01, 9.81301963e-01, 5.52831352e-01,
          4.48219597e-01, 9.81301963e-01, 5.42765617e-01, 5.42765617e-01,
          3.81469727e-03, 1.64000005e-01, 1.60000008e-02, 5.99999987e-02,
          1.99999996e-02, 8.00000038e-03, 2.40000002e-02, 0.,
          8.00000038e-03, 8.00000038e-03, 8.00000038e-03, 0.,
          4.00000019e-03, 4.00000019e-03, 8.00000038e-03, 1.20000001e-02,
          0., 6.80000037e-02, 1.20000001e-02, 8.00000038e-03,
          1.20000001e-02, 4.00000019e-03, 0., 1.99999996e-02,
          8.00000038e-03, 0., 0., 0., 0., 0., 1.60000008e-02,
          1.20000001e-02, 1.60000008e-02, 0., 0., 0., 0., 1.20000001e-02,
          3.59999985e-02, 3.59999985e-02, 0., 0., 5.99999987e-02,
          1.99999996e-02, 3.99999991e-02, 1.20000001e-02, 0., 0., 0., 0.,
          4.00000019e-03, 0., 0., 0., 0., 0., 5.20000011e-02, 0.,
          1.99999996e-02, 1.87999994e-01, 0., 0., 1., 0., 0., 0., 1., 0. ]
      - [ 4.33517158e-01, 6.91390932e-01, 9.43382382e-01, 5.87591887e-01,
          5.38817406e-01, 9.43382382e-01, 6.35070801e-01, 6.35070801e-01,
          1.95312500e-03, 5.46875000e-02, 0., 2.34375000e-02,
          7.81250000e-03, 0., 7.81250000e-03, 0., 0., 1.56250000e-02, 0.,
          0., 7.81250000e-03, 1.56250000e-02, 2.57812500e-01,
          1.17187500e-01, 2.34375000e-02, 1.56250000e-02, 7.81250000e-03,
          3.12500000e-02, 1.56250000e-01, 7.81250000e-02, 0., 0.,
          2.34375000e-02, 0., 0., 1.56250000e-02, 0., 0., 7.81250000e-03,
          0., 7.81250000e-03, 0., 0., 0., 0., 0., 0., 1.56250000e-02,
          7.81250000e-03, 1.56250000e-02, 0., 0., 7.81250000e-03,
          7.81250000e-03, 0., 0., 0., 0., 0., 7.81250000e-03, 0.,
          7.81250000e-03, 0., 0., 0., 0., 7.81250000e-03, 4.68750000e-02,
          0., 0., 9.84375000e-01, 1.56250000e-02, 0., 0., 1., 0. ]
      - [ 1.13735855e-01, 2.81606972e-01, 6.26736104e-01, 6.18027806e-01,
          8.22830081e-01, 6.26736104e-01, 5.46875000e-02, 5.46875000e-02,
          1.15509033e-02, 6.60502017e-02, 0., 1.18890358e-02,
          2.64200801e-03, 5.28401602e-03, 1.58520471e-02, 5.28401602e-03,
          6.60501979e-03, 9.24702734e-03, 1.45310434e-02, 0.,
          2.64200801e-03, 1.05680320e-02, 1.03038311e-01, 9.37912837e-02,
          2.64200792e-02, 1.98150594e-02, 2.90620867e-02, 4.09511216e-02,
          1.78335533e-01, 2.37780716e-02, 1.05680320e-02, 2.64200801e-03,
          7.92602357e-03, 1.18890358e-02, 3.96301178e-03, 3.56671065e-02,
          1.05680320e-02, 1.32100401e-03, 3.96301178e-03, 0.,
          2.64200801e-03, 3.96301178e-03, 5.28401602e-03, 6.60501979e-03,
          1.32100401e-03, 3.96301178e-03, 0., 1.58520471e-02,
          3.96301178e-03, 2.64200801e-03, 1.58520471e-02, 6.60501979e-03,
          3.96301178e-03, 0., 0., 0., 1.32100396e-02, 5.28401602e-03,
          2.64200801e-03, 1.32100401e-03, 3.96301178e-03, 3.96301178e-03,
          0., 1.58520471e-02, 1.71730518e-02, 2.64200801e-03,
          1.18890358e-02, 9.51122865e-02, 0., 0., 0., 1., 0., 0.,
          8.45442563e-02, 9.10171747e-01 ]
      - [ 3.00451428e-01, 5.32425880e-01, 7.84383178e-01, 5.83739638e-01,
          6.09148800e-01, 7.85836995e-01, 4.15593654e-01, 4.15593654e-01,
          1.29241943e-02, 1.08618654e-01, 1.18063753e-02, 1.53482882e-02,
          3.54191265e-03, 5.90318767e-03, 1.18063751e-03, 7.08382530e-03,
          8.26446246e-03, 5.90318767e-03, 5.90318767e-03, 2.36127502e-03,
          7.08382530e-03, 3.54191265e-03, 1.29870130e-02, 1.41676506e-02,
          2.36127502e-03, 2.00708378e-02, 2.36127502e-03, 9.44510009e-03,
          1.29870130e-02, 7.08382530e-03, 0., 1.53482882e-02,
          8.26446246e-03, 5.90318767e-03, 1.18063751e-03, 3.54191265e-03,
          2.36127502e-03, 4.72255005e-03, 1.53482882e-02, 1.18063753e-02,
          1.18063753e-02, 5.90318767e-03, 1.18063751e-03, 1.18063751e-03,
          5.90318767e-03, 3.30578499e-02, 1.32231399e-01, 2.47933883e-02,
          9.44510009e-03, 3.54191265e-03, 2.83353012e-02, 4.72255005e-03,
          5.90318777e-02, 8.26446246e-03, 7.08382530e-03, 1.06257377e-02,
          2.36127502e-03, 9.44510009e-03, 8.26446246e-03, 1.06257377e-02,
          1.18063751e-03, 7.08382530e-03, 3.54191265e-03, 1.18063751e-03,
          2.95159388e-02, 1.18063751e-03, 4.60448638e-02, 1.95985839e-01,
          1.77095626e-02, 0., 8.42975199e-01, 1.39315233e-01, 0.,
          9.32703689e-02, 3.57733190e-01, 5.48996449e-01 ]
      - [ 3.41168314e-01, 5.68415046e-01, 8.02712440e-01, 5.89027762e-01,
          5.67156851e-01, 8.02712440e-01, 4.52913404e-01, 4.52913404e-01,
          7.32421875e-03, 1.37500003e-01, 4.16666688e-03, 2.08333340e-02,
          6.25000009e-03, 0., 4.16666688e-03, 0., 2.08333344e-03,
          1.04166670e-02, 0., 0., 1.04166670e-02, 1.04166670e-02,
          4.58333343e-02, 2.50000004e-02, 2.08333344e-03, 3.33333351e-02,
          6.25000009e-03, 0., 4.37499993e-02, 8.33333377e-03, 0.,
          2.50000004e-02, 6.25000009e-03, 2.08333344e-03, 2.08333344e-03,
          1.04166670e-02, 0., 8.33333377e-03, 8.33333377e-03,
          1.04166670e-02, 6.25000009e-03, 0., 0., 0., 2.08333344e-03,
          8.33333377e-03, 6.66666701e-02, 1.66666675e-02, 4.16666688e-03,
          4.16666688e-03, 2.29166672e-02, 1.45833334e-02, 3.75000015e-02,
          1.45833334e-02, 2.08333344e-03, 4.16666688e-03, 4.16666688e-03,
          1.04166670e-02, 2.08333344e-03, 6.25000009e-03, 0.,
          6.25000009e-03, 4.16666688e-03, 2.08333344e-03, 3.12500000e-02,
          0., 5.62499985e-02, 2.29166672e-01, 0., 0., 9.64583337e-01,
          3.54166664e-02, 0., 1.66666675e-02, 9.45833325e-01,
          3.75000015e-02 ]
      - [ 3.93762350e-01, 3.42624038e-01, 2.23555729e-01, 1.16883799e-01,
          4.80879068e-01, 3.93762350e-01, 5.52092075e-01, 5.52092075e-01,
          2.27355957e-03, 1.34228185e-01, 1.34228189e-02, 2.68456377e-02,
          1.34228189e-02, 0., 0., 2.01342274e-02, 1.34228189e-02,
          6.71140943e-03, 1.34228189e-02, 0., 2.01342274e-02,
          2.01342274e-02, 1.34228189e-02, 1.34228189e-02, 1.34228189e-02,
          2.01342274e-02, 1.34228189e-02, 2.01342274e-02, 0.,
          6.71140943e-03, 0., 2.01342274e-02, 6.71140943e-03,
          1.34228189e-02, 6.71140943e-03, 0., 6.71140943e-03,
          1.34228189e-02, 6.71140943e-03, 2.01342274e-02, 1.34228189e-02,
          2.01342274e-02, 0., 1.34228189e-02, 6.71140943e-03,
          1.34228189e-02, 0., 6.71140943e-03, 6.71140943e-03, 0.,
          1.34228189e-02, 1.34228189e-02, 6.71140943e-03, 0.,
          2.01342274e-02, 0., 2.01342274e-02, 2.01342274e-02,
          1.34228189e-02, 6.71140943e-03, 0., 0., 0., 2.68456377e-02, 0.,
          1.34228189e-02, 1.34228189e-02, 2.75167793e-01, 1., 0., 0., 0.,
          0., 1.67785242e-01, 6.44295275e-01, 1.81208059e-01 ]
      - [ 8.58893991e-01, 7.77574241e-01, 7.33098507e-01, 1.32182688e-01,
          1.50193736e-01, 8.58893991e-01, 5.84697783e-01, 5.84697783e-01,
          2.54821777e-03, 5.38922139e-02, 0., 5.98802418e-03,
          5.98802418e-03, 5.98802418e-03, 1.19760484e-02, 1.19760484e-02,
          5.98802418e-03, 5.98802418e-03, 1.79640725e-02, 2.39520967e-02,
          1.19760484e-02, 1.19760484e-02, 1.19760484e-02, 1.79640725e-02,
          4.19161692e-02, 0., 0., 5.98802418e-03, 4.79041934e-02,
          1.79640725e-02, 5.98802418e-03, 0., 0., 5.98802418e-03, 0.,
          5.98802418e-03, 5.98802418e-03, 1.19760484e-02, 0., 0., 0.,
          1.19760484e-02, 2.39520967e-02, 1.19760484e-02, 1.19760484e-02,
          0., 5.38922139e-02, 2.39520967e-02, 1.19760484e-02,
          5.98802418e-03, 2.99401190e-02, 0., 3.59281451e-02,
          2.99401190e-02, 5.98802418e-03, 1.19760484e-02, 0.,
          5.98802418e-03, 0., 5.98802418e-03, 0., 0., 5.98802418e-03,
          1.19760484e-02, 2.99401190e-02, 1.19760484e-02, 8.38323385e-02,
          2.21556887e-01, 9.22155678e-01, 0., 0., 0., 7.18562901e-02,
          9.58083808e-01, 4.19161692e-02, 0. ]
      - [ 3.55727941e-01, 3.75105947e-01, 4.56668824e-01, 4.76348490e-01,
          3.77174467e-01, 4.95453566e-01, 6.08130157e-01, 6.08130157e-01,
          4.16564941e-03, 4.02930416e-02, 0., 2.19780225e-02, 0.,
          1.09890113e-02, 0., 3.66300368e-03, 7.32600736e-03,
          1.83150191e-02, 7.32600736e-03, 0., 1.46520147e-02,
          1.46520147e-02, 9.15750936e-02, 6.95970729e-02, 1.09890113e-02,
          1.83150191e-02, 0., 0., 8.05860832e-02, 6.59340695e-02,
          2.56410260e-02, 3.66300368e-03, 3.66300368e-03, 3.66300368e-03,
          3.66300368e-03, 2.19780225e-02, 3.29670347e-02, 1.09890113e-02,
          0., 7.32600736e-03, 3.66300368e-03, 3.66300368e-03, 0.,
          3.66300368e-03, 7.32600736e-03, 0., 1.83150191e-02,
          3.66300368e-03, 3.66300368e-03, 7.32600736e-03, 1.83150191e-02,
          0., 1.09890113e-02, 3.66300368e-03, 0., 3.66300368e-03,
          3.66300368e-03, 0., 3.66300368e-03, 7.32600736e-03, 0.,
          1.46520147e-02, 0., 7.32600736e-03, 2.56410260e-02,
          1.09890113e-02, 6.22710623e-02, 1.86813191e-01, 2.82051295e-01,
          7.32600736e-03, 1.83150191e-02, 6.77655697e-01, 1.46520147e-02,
          5.01831532e-01, 3.66300374e-01, 1.31868139e-01 ]
      - [ 1.25862315e-01, 2.12652072e-01, 4.43967372e-01, 6.27021611e-01,
          7.17561185e-01, 4.43967372e-01, 6.39170825e-01, 6.39170825e-01,
          2.09045410e-03, 1.45985400e-02, 0., 0., 0., 0., 0., 0., 0., 0.,
          0., 0., 0., 0., 5.10948896e-02, 5.10948896e-02, 2.18978096e-02,
          0., 0., 0., 6.56934306e-02, 2.18978096e-02, 7.29927002e-03, 0.,
          0., 0., 0., 1.45985400e-02, 7.29927002e-03, 0., 0., 0., 0., 0.,
          0., 0., 0., 0., 8.75912383e-02, 5.10948896e-02, 2.18978096e-02,
          7.29927002e-03, 1.24087594e-01, 0., 6.56934306e-02, 0., 0., 0.,
          0., 1.45985400e-02, 1.45985400e-02, 0., 0., 0., 0.,
          7.29927002e-03, 1.45985395e-01, 0., 7.29926974e-02,
          1.31386861e-01, 0., 0., 0., 1., 0., 0., 1.53284669e-01,
          8.46715331e-01 ]
      - [ 2.13021133e-02, 7.19208047e-02, 2.64068156e-01, 6.37978315e-01,
          9.22549009e-01, 2.64068156e-01, 8.57336521e-01, 8.57336521e-01,
          6.28662109e-03, 1.04368933e-01, 7.28155347e-03, 4.85436879e-02,
          7.28155347e-03, 2.42718449e-03, 4.85436898e-03, 0.,
          9.70873795e-03, 2.42718449e-03, 2.42718440e-02, 9.70873795e-03,
          7.28155347e-03, 4.85436898e-03, 3.64077687e-02, 5.09708747e-02,
          7.28155347e-03, 5.58252409e-02, 1.21359220e-02, 9.70873795e-03,
          9.70873795e-03, 1.45631069e-02, 0., 4.85436898e-03,
          1.45631069e-02, 0., 0., 1.45631069e-02, 1.21359220e-02,
          2.42718449e-03, 0., 7.28155347e-03, 9.70873795e-03, 0.,
          2.42718449e-03, 7.28155347e-03, 7.28155347e-03, 4.85436898e-03,
          3.88349518e-02, 2.18446609e-02, 7.28155347e-03, 9.70873795e-03,
          5.09708747e-02, 7.28155347e-03, 3.88349518e-02, 1.21359220e-02,
          4.85436898e-03, 4.85436898e-03, 2.42718449e-03, 1.21359220e-02,
          0., 4.85436898e-03, 4.85436898e-03, 1.45631069e-02,
          2.42718449e-03, 7.28155347e-03, 2.66990289e-02, 2.42718449e-03,
          3.88349518e-02, 1.69902906e-01, 0., 0., 0., 1., 0., 0., 0.,
          8.17961156e-01 ]
      - [ 2.18905471e-02, 3.53819132e-02, 2.01258421e-01, 6.59759998e-01,
          9.00117040e-01, 2.01258421e-01, 9.21991587e-01, 9.21991587e-01,
          2.04467773e-03, 1.94029853e-01, 0., 2.98507456e-02, 0.,
          7.46268639e-03, 0., 0., 0., 1.49253728e-02, 7.46268639e-03, 0.,
          7.46268639e-03, 0., 4.47761193e-02, 7.46268639e-03, 0.,
          4.47761193e-02, 7.46268639e-03, 0., 9.70149264e-02,
          1.49253728e-02, 7.46268639e-03, 7.46268639e-03, 7.46268639e-03,
          7.46268639e-03, 0., 7.46268639e-03, 0., 0., 7.46268639e-03,
          7.46268639e-03, 7.46268639e-03, 0., 0., 2.23880596e-02, 0., 0.,
          2.98507456e-02, 6.71641827e-02, 1.49253728e-02, 7.46268639e-03,
          2.23880596e-02, 0., 7.46268639e-03, 0., 0., 0., 0.,
          1.49253728e-02, 7.46268639e-03, 0., 7.46268639e-03,
          7.46268639e-03, 7.46268639e-03, 0., 5.97014911e-02, 0.,
          2.23880596e-02, 1.64179102e-01, 0., 0., 0., 1., 0., 0., 0.,
          8.28358233e-01 ]
      - [ 3.13814841e-02, 9.96113345e-02, 3.10039014e-01, 6.33393764e-01,
          9.02064443e-01, 3.10042381e-01, 7.89673805e-01, 7.89673805e-01,
          3.01376343e-01, 1.05412386e-01, 5.61996875e-03, 4.16687764e-02,
          1.14930887e-02, 6.63257577e-03, 1.22019136e-02, 3.54412431e-03,
          5.72122913e-03, 9.16409306e-03, 1.41258668e-02, 3.34160286e-03,
          5.82248997e-03, 1.02273300e-02, 3.35679203e-02, 3.43273766e-02,
          1.29107386e-02, 4.42509241e-02, 1.42777581e-02, 1.26069570e-02,
          3.06313597e-02, 1.10374158e-02, 4.70862212e-03, 5.61996875e-03,
          1.16956104e-02, 3.79727618e-03, 3.54412431e-03, 1.26575874e-02,
          5.21492586e-03, 4.35421010e-03, 5.56933833e-03, 8.15148558e-03,
          1.02779604e-02, 2.53151730e-03, 2.58214772e-03, 8.70842021e-03,
          2.48088711e-03, 6.93635782e-03, 2.06571817e-02, 2.09103338e-02,
          1.03792213e-02, 9.61976591e-03, 3.82765420e-02, 1.18475016e-02,
          2.54164338e-02, 8.96157138e-03, 3.84790637e-03, 2.32899608e-03,
          3.64538515e-03, 1.11386767e-02, 3.08845122e-03, 4.30357968e-03,
          2.98719062e-03, 8.30337685e-03, 2.63277814e-03, 1.00754388e-02,
          3.90359983e-02, 2.37962627e-03, 3.81752811e-02, 1.89661279e-01,
          5.06303477e-05, 0., 5.06303477e-05, 9.99898732e-01, 0.,
          2.07584421e-03, 1.02779604e-02, 8.64918232e-01 ]
      - [ 2.00522870e-01, 3.15457523e-01, 5.58464050e-01, 6.17679715e-01,
          6.40163422e-01, 5.58464050e-01, 3.93880205e-03, 3.93880205e-03,
          1.83105469e-03, 0., 0., 0., 0., 0., 0., 8.33333377e-03, 0., 0.,
          0., 0., 0., 0., 0., 0., 0., 0., 0., 0., 0., 0., 0., 0., 0., 0.,
          0., 0., 0., 0., 0., 0., 0., 0., 0., 0., 0., 0., 6.83333337e-01,
          9.16666687e-02, 1.66666675e-02, 0., 1.66666675e-02, 0.,
          4.16666679e-02, 0., 0., 0., 0., 0., 0., 0., 0., 0., 0., 0., 0.,
          0., 1.66666675e-02, 1.25000000e-01, 0., 0., 0., 1., 0., 0.,
          9.16666687e-01, 8.33333358e-02 ]
      - [ 1.43960789e-01, 2.31999993e-01, 4.07843143e-01, 6.16156876e-01,
          6.49568617e-01, 4.07843143e-01, 1.89531252e-01, 1.89531252e-01,
          1.52587891e-03, 9.99999978e-03, 0., 0., 0., 0., 0.,
          5.19999981e-01, 0., 0., 0., 9.00000036e-02, 0., 0., 0., 0., 0.,
          0., 0., 0., 0., 0., 0., 0., 0., 0., 0., 0., 0., 0., 0., 0., 0.,
          2.70000011e-01, 9.00000036e-02, 0., 0., 0., 0., 0., 0.,
          9.99999978e-03, 9.99999978e-03, 0., 0., 0., 0., 0., 0., 0., 0.,
          0., 0., 0., 0., 0., 0., 0., 0., 0., 0., 0., 0., 1., 0., 0.,
          4.79999989e-01, 5.09999990e-01 ]
      - [ 3.96451712e-01, 5.56739867e-01, 9.04566824e-01, 6.19468987e-01,
          5.63285649e-01, 9.04566824e-01, 3.57799351e-01, 3.57799351e-01,
          2.62908936e-02, 1.13174692e-01, 5.80383046e-03, 3.94660458e-02,
          9.28612892e-03, 9.28612892e-03, 1.97330229e-02, 9.86651145e-03,
          1.16076609e-02, 1.39291929e-02, 2.20545568e-02, 7.54497992e-03,
          6.96459645e-03, 1.21880444e-02, 4.75914106e-02, 3.54033671e-02,
          2.20545568e-02, 2.14741733e-02, 1.10272784e-02, 5.22344746e-03,
          2.03134064e-02, 1.16076609e-02, 5.80383046e-03, 6.96459645e-03,
          5.22344746e-03, 5.22344746e-03, 7.54497992e-03, 1.16076609e-02,
          7.54497992e-03, 6.96459645e-03, 8.12536292e-03, 9.28612892e-03,
          8.70574545e-03, 5.22344746e-03, 3.48229823e-03, 1.21880444e-02,
          6.38421346e-03, 6.38421346e-03, 1.33488104e-02, 1.68311093e-02,
          1.10272784e-02, 8.70574545e-03, 2.61172373e-02, 4.64306446e-03,
          1.62507258e-02, 6.38421346e-03, 6.38421346e-03, 4.06268146e-03,
          2.90191523e-03, 1.10272784e-02, 2.90191523e-03, 2.90191523e-03,
          4.06268146e-03, 3.48229823e-03, 1.16076611e-03, 6.96459645e-03,
          1.91526413e-02, 2.90191523e-03, 3.88856642e-02, 2.17643648e-01,
          0., 0., 0., 1., 0., 0., 9.91294265e-01, 8.70574545e-03 ]
      - [ 3.91403556e-01, 5.38163304e-01, 8.65359485e-01, 6.20937169e-01,
          5.47601640e-01, 8.65359485e-01, 3.49664539e-01, 3.49664539e-01,
          2.70080566e-03, 8.47457647e-02, 1.69491526e-02, 1.12994350e-02,
          0., 5.64971752e-03, 0., 1.12994350e-02, 1.69491526e-02,
          5.64971752e-03, 0., 2.25988701e-02, 0., 1.12994350e-02,
          1.69491526e-02, 4.51977402e-02, 1.12994350e-02, 4.51977402e-02,
          2.82485876e-02, 5.64971752e-03, 1.69491526e-02, 1.12994350e-02,
          5.64971752e-03, 1.69491526e-02, 5.64971752e-03, 0.,
          5.64971752e-03, 2.25988701e-02, 1.12994350e-02, 1.69491526e-02,
          0., 5.64971752e-03, 0., 0., 0., 5.64971752e-03, 5.64971752e-03,
          5.64971752e-03, 1.12994350e-02, 2.25988701e-02, 1.12994350e-02,
          1.12994350e-02, 2.25988701e-02, 1.12994350e-02, 4.51977402e-02,
          1.69491526e-02, 1.12994350e-02, 5.64971752e-03, 1.12994350e-02,
          1.12994350e-02, 0., 0., 0., 0., 0., 1.69491526e-02,
          5.08474559e-02, 1.69491526e-02, 5.08474559e-02, 1.97740108e-01,
          0., 0., 0., 1., 0., 0., 1., 0. ]
      - [ 3.03574532e-01, 4.71681416e-01, 7.65434682e-01, 6.10775650e-01,
          6.01995468e-01, 7.65434682e-01, 3.73167872e-01, 3.73167872e-01,
          3.44848633e-03, 1.72566369e-01, 8.84955749e-03, 7.07964599e-02,
          1.76991150e-02, 0., 8.84955749e-03, 0., 8.84955749e-03, 0.,
          4.42477874e-03, 4.42477874e-03, 0., 8.84955749e-03,
          5.30973449e-02, 7.52212405e-02, 0., 2.65486725e-02, 0., 0., 0.,
          4.42477874e-03, 4.42477874e-03, 4.42477874e-03, 4.42477874e-03,
          0., 0., 0., 0., 0., 3.09734512e-02, 4.42477874e-03,
          1.76991150e-02, 0., 0., 0., 0., 1.32743362e-02, 1.32743362e-02,
          8.84955749e-03, 0., 0., 1.10619470e-01, 8.84955749e-03, 0.,
          1.76991150e-02, 0., 4.42477874e-03, 0., 0., 0., 0., 0., 0., 0.,
          0., 1.76991150e-02, 0., 4.86725681e-02, 2.25663722e-01, 0., 0.,
          4.42477874e-03, 9.95575249e-01, 0., 0., 9.11504447e-01,
          8.84955749e-02 ]
      - [ 1.55963093e-01, 3.00899655e-01, 4.73656297e-01, 5.94694376e-01,
          6.77254915e-01, 4.73656297e-01, 3.95863980e-01, 3.95863980e-01,
          2.59399414e-03, 9.41176489e-02, 0., 1.41176477e-01, 0., 0., 0.,
          0., 5.88235306e-03, 0., 0., 0., 5.88235306e-03, 0.,
          1.00000001e-01, 1.17647059e-01, 0., 1.11764707e-01, 0.,
          5.88235306e-03, 3.52941193e-02, 1.76470596e-02, 5.88235306e-03,
          0., 0., 0., 0., 5.88235306e-03, 5.88235306e-03, 0., 0., 0., 0.,
          0., 0., 0., 0., 0., 0., 0., 0., 0., 8.23529437e-02, 0., 0., 0.,
          0., 0., 0., 0., 0., 0., 0., 0., 0., 0., 1.05882354e-01, 0.,
          3.52941193e-02, 1.23529412e-01, 0., 0., 6.17647052e-01,
          3.82352948e-01, 0., 0., 4.82352942e-01, 5.17647088e-01 ]
      - [ 8.10085610e-02, 2.20890865e-01, 3.02529782e-01, 5.65419912e-01,
          7.51022220e-01, 3.02529782e-01, 4.08939362e-01, 4.08939362e-01,
          1.07269287e-02, 1.80654332e-01, 9.95732564e-03, 4.55192029e-02,
          1.84921771e-02, 1.13798007e-02, 1.13798007e-02, 1.42247509e-03,
          1.28022758e-02, 5.68990037e-03, 7.11237546e-03, 2.84495018e-03,
          9.95732564e-03, 5.68990037e-03, 1.70697011e-02, 7.11237546e-03,
          7.11237546e-03, 1.99146513e-02, 8.53485055e-03, 0.,
          7.11237546e-03, 5.68990037e-03, 5.68990037e-03, 4.26742528e-03,
          2.13371273e-02, 2.84495018e-03, 1.42247509e-03, 5.68990037e-03,
          0., 4.26742528e-03, 8.53485055e-03, 1.42247509e-03,
          4.26742528e-03, 1.42247509e-03, 1.42247509e-03, 1.42247509e-03,
          2.84495018e-03, 5.68990037e-03, 4.40967269e-02, 1.70697011e-02,
          2.41820775e-02, 9.95732564e-03, 5.12091033e-02, 2.84495018e-03,
          7.11237546e-03, 1.28022758e-02, 7.11237546e-03, 1.42247509e-03,
          0., 2.98719779e-02, 1.42247509e-03, 3.12944539e-02, 0.,
          7.11237546e-03, 2.84495018e-03, 5.68990037e-03, 1.84921771e-02,
          0., 3.41394022e-02, 2.23328590e-01, 0., 0., 1., 0., 0.,
          1.13798007e-02, 1.94879085e-01, 7.83783793e-01 ]
      - [ 1.86058193e-01, 3.35775584e-01, 4.70979005e-01, 5.83434522e-01,
          6.01521194e-01, 4.70979005e-01, 4.64690834e-01, 4.64690834e-01,
          4.28771973e-03, 1.38790041e-01, 7.11743766e-03, 2.13523135e-02,
          7.11743766e-03, 7.11743766e-03, 7.11743766e-03, 7.11743766e-03,
          3.55871883e-03, 7.11743766e-03, 3.55871883e-03, 0.,
          1.06761567e-02, 3.55871883e-03, 2.84697507e-02, 3.20284702e-02,
          1.42348753e-02, 1.77935939e-02, 3.55871883e-03, 1.06761567e-02,
          4.27046269e-02, 3.55871883e-03, 1.42348753e-02, 3.55871883e-03,
          0., 3.55871883e-03, 0., 1.06761567e-02, 0., 0., 3.55871883e-03,
          1.06761567e-02, 0., 7.11743766e-03, 3.55871883e-03,
          1.42348753e-02, 1.42348753e-02, 0., 3.55871879e-02,
          4.62633446e-02, 1.42348753e-02, 3.55871883e-03, 5.69395013e-02,
          1.42348753e-02, 2.49110311e-02, 3.55871883e-03, 1.06761567e-02,
          7.11743766e-03, 3.55871883e-03, 7.11743766e-03, 0.,
          3.55871883e-03, 0., 7.11743766e-03, 0., 7.11743766e-03,
          2.49110311e-02, 0., 5.69395013e-02, 2.09964409e-01, 0., 0.,
          9.75088954e-01, 2.49110311e-02, 0., 0., 8.39857638e-01,
          1.60142347e-01 ]
      - [ 1.77964523e-01, 3.46367866e-01, 4.50569570e-01, 5.68814218e-01,
          6.05042040e-01, 4.50569570e-01, 4.98809516e-01, 4.98809516e-01,
          1.60217285e-03, 1.04761906e-01, 0., 9.52380989e-03,
          2.85714287e-02, 9.52380989e-03, 0., 9.52380989e-03,
          9.52380989e-03, 0., 0., 9.52380989e-03, 0., 0., 2.85714287e-02,
          9.52380989e-03, 4.76190485e-02, 9.52380989e-03, 0.,
          9.52380989e-03, 2.85714287e-02, 0., 9.52380989e-03,
          9.52380989e-03, 3.80952395e-02, 9.52380989e-03, 0.,
          1.90476198e-02, 0., 2.85714287e-02, 9.52380989e-03, 0.,
          9.52380989e-03, 0., 0., 9.52380989e-03, 0., 9.52380989e-03,
          2.85714287e-02, 9.52380989e-03, 5.71428575e-02, 9.52380989e-03,
          0., 0., 1.90476198e-02, 9.52380989e-03, 0., 0., 0.,
          4.76190485e-02, 9.52380989e-03, 3.80952395e-02, 0.,
          9.52380989e-03, 0., 2.85714287e-02, 2.85714287e-02, 0.,
          4.76190485e-02, 1.90476194e-01, 0., 0., 1., 0., 0., 0.,
          8.85714293e-01, 1.14285715e-01 ]
      - [ 1.66949928e-01, 2.52753556e-01, 3.02770108e-01, 5.53117752e-01,
          5.14762878e-01, 3.03763390e-01, 5.92262268e-01, 5.92262268e-01,
          8.13293457e-03, 1.01313323e-01, 7.50469044e-03, 3.18949334e-02,
          1.31332083e-02, 3.75234522e-03, 7.50469044e-03, 9.38086305e-03,
          1.31332083e-02, 1.31332083e-02, 9.38086305e-03, 9.38086305e-03,
          1.87617261e-03, 1.50093809e-02, 3.18949334e-02, 2.62664165e-02,
          9.38086305e-03, 3.56472805e-02, 7.50469044e-03, 5.62851783e-03,
          3.37711051e-02, 2.43902430e-02, 5.62851783e-03, 5.62851783e-03,
          7.50469044e-03, 5.62851783e-03, 1.87617261e-03, 1.12570357e-02,
          9.38086305e-03, 9.38086305e-03, 3.75234522e-03, 5.62851783e-03,
          5.62851783e-03, 1.87617261e-03, 1.87617261e-03, 9.38086305e-03,
          1.87617261e-03, 1.12570357e-02, 2.25140713e-02, 9.38086305e-03,
          7.50469044e-03, 3.75234522e-03, 3.18949334e-02, 7.50469044e-03,
          3.75234522e-02, 9.38086305e-03, 5.62851783e-03, 7.50469044e-03,
          3.75234522e-03, 1.50093809e-02, 1.87617261e-03, 9.38086305e-03,
          3.75234522e-03, 3.75234522e-03, 5.62851783e-03, 7.50469044e-03,
          2.81425882e-02, 3.75234522e-03, 4.69043143e-02, 2.19512194e-01,
          0., 2.25140713e-02, 9.30581629e-01, 4.69043143e-02, 0.,
          1.68855533e-01, 6.58536613e-01, 9.94371474e-02 ]
      - [ 1.57551050e-01, 2.67256141e-01, 3.40512872e-01, 5.71140647e-01,
          5.89901328e-01, 3.40516418e-01, 5.86879790e-01, 5.86879790e-01,
          1.69525146e-02, 1.00810081e-01, 9.00090020e-03, 4.68046814e-02,
          1.71017107e-02, 4.50045010e-03, 1.62016209e-02, 6.30063005e-03,
          3.60036013e-03, 8.10081046e-03, 4.50045010e-03, 2.70026992e-03,
          6.30063005e-03, 4.50045010e-03, 2.34023407e-02, 2.34023407e-02,
          8.10081046e-03, 3.69036905e-02, 1.17011704e-02, 7.20072025e-03,
          2.79027894e-02, 1.17011704e-02, 3.60036013e-03, 3.60036013e-03,
          8.10081046e-03, 1.80018006e-03, 0., 1.44014405e-02,
          1.80018006e-03, 1.08010797e-02, 3.60036013e-03, 2.70026992e-03,
          4.50045010e-03, 2.70026992e-03, 1.80018006e-03, 8.10081046e-03,
          5.40053984e-03, 7.20072025e-03, 2.52025202e-02, 4.05040495e-02,
          1.26012601e-02, 7.20072025e-03, 5.13051301e-02, 6.30063005e-03,
          2.43024305e-02, 2.25022510e-02, 0., 4.50045010e-03, 0.,
          6.30063005e-03, 9.00090032e-04, 7.20072025e-03, 0.,
          5.40053984e-03, 3.60036013e-03, 5.40053984e-03, 3.69036905e-02,
          1.80018006e-03, 5.13051301e-02, 2.25922599e-01, 0., 0.,
          9.80198026e-01, 1.98019799e-02, 0., 7.56075606e-02,
          6.35463536e-01, 2.68226832e-01 ]
      - [ 2.11753786e-01, 3.22387904e-01, 4.14593905e-01, 5.77311695e-01,
          5.00584424e-01, 4.14593905e-01, 6.39145195e-01, 6.39145195e-01,
          5.47790527e-03, 6.68523684e-02, 8.35654605e-03, 1.39275771e-02,
          0., 1.94986071e-02, 0., 2.78551527e-03, 2.78551527e-03,
          5.57103055e-03, 2.78551527e-03, 2.78551527e-03, 5.57103055e-03,
          0., 2.22841222e-02, 1.67130921e-02, 8.35654605e-03,
          3.89972143e-02, 0., 8.35654605e-03, 2.78551541e-02,
          1.94986071e-02, 8.35654605e-03, 5.57103055e-03, 5.57103055e-03,
          0., 0., 1.11420611e-02, 2.78551527e-03, 1.67130921e-02,
          2.78551527e-03, 8.35654605e-03, 5.57103055e-03, 0., 0.,
          1.39275771e-02, 8.35654605e-03, 8.35654605e-03, 2.50696372e-02,
          3.62116992e-02, 2.22841222e-02, 8.35654605e-03, 3.34261842e-02,
          5.57103055e-03, 8.35654605e-03, 2.22841222e-02, 5.57103055e-03,
          2.78551527e-03, 2.78551527e-03, 5.57103055e-03, 1.11420611e-02,
          1.11420611e-02, 2.78551527e-03, 1.39275771e-02, 8.35654605e-03,
          5.57103055e-03, 5.01392744e-02, 5.57103055e-03, 7.24233985e-02,
          2.70194978e-01, 0., 0., 9.27576602e-01, 7.24233985e-02, 0.,
          5.57103083e-02, 9.02506948e-01, 4.17827293e-02 ]
      - [ 1.56222984e-01, 2.77723253e-01, 3.80201697e-01, 5.80314040e-01,
          6.05914116e-01, 3.80201697e-01, 6.35191262e-01, 6.35191262e-01,
          1.22528076e-02, 8.84184316e-02, 4.98131989e-03, 4.23412211e-02,
          8.71730968e-03, 6.22664997e-03, 3.73599003e-03, 0.,
          3.73599003e-03, 8.71730968e-03, 4.98131989e-03, 1.24532997e-03,
          3.73599003e-03, 9.96263977e-03, 3.36239114e-02, 1.74346194e-02,
          7.47198006e-03, 4.98131998e-02, 8.71730968e-03, 7.47198006e-03,
          2.61519309e-02, 1.24532999e-02, 9.96263977e-03, 3.73599003e-03,
          8.71730968e-03, 0., 0., 7.47198006e-03, 8.71730968e-03,
          1.24532997e-03, 4.98131989e-03, 4.98131989e-03, 8.71730968e-03,
          0., 1.24532997e-03, 1.12079699e-02, 2.49065994e-03,
          7.47198006e-03, 3.61145698e-02, 3.48692387e-02, 3.73599003e-03,
          4.98131989e-03, 3.98505591e-02, 1.24532999e-02, 2.98879202e-02,
          1.86799504e-02, 7.47198006e-03, 6.22664997e-03, 2.49065994e-03,
          3.73599003e-03, 1.12079699e-02, 2.49065994e-03, 1.24532997e-03,
          6.22664997e-03, 4.98131989e-03, 7.47198006e-03, 4.23412211e-02,
          1.24532997e-03, 5.35491891e-02, 2.37858027e-01, 0., 0.,
          9.57658768e-01, 4.23412211e-02, 0., 1.99252795e-02,
          6.88667476e-01, 2.91407228e-01 ]
      - [ 1.41788512e-01, 1.99750647e-01, 1.72843710e-01, 4.04159576e-01,
          4.85050440e-01, 2.14609548e-01, 6.19479299e-01, 6.19479299e-01,
          5.27954102e-03, 1.09826587e-01, 5.78034669e-03, 1.44508667e-02,
          5.78034669e-03, 1.44508667e-02, 1.44508667e-02, 0.,
          5.78034669e-03, 5.78034669e-03, 5.78034669e-03, 0.,
          2.02312134e-02, 1.15606934e-02, 2.60115601e-02, 3.17919068e-02,
          1.15606934e-02, 2.31213868e-02, 1.73410401e-02, 2.89017335e-03,
          1.15606934e-02, 2.02312134e-02, 8.67052004e-03, 5.78034669e-03,
          2.89017335e-03, 0., 2.89017335e-03, 1.15606934e-02,
          8.67052004e-03, 2.89017335e-03, 5.78034669e-03, 0.,
          5.78034669e-03, 0., 2.89017335e-03, 8.67052004e-03,
          5.78034669e-03, 0., 2.02312134e-02, 8.67052004e-03,
          2.89017335e-03, 0., 3.46820801e-02, 1.15606934e-02,
          1.15606934e-02, 2.89017335e-03, 5.78034669e-03, 8.67052004e-03,
          0., 2.02312134e-02, 5.78034669e-03, 8.67052004e-03,
          5.78034669e-03, 8.67052004e-03, 2.89017335e-03, 8.67052004e-03,
          3.75722535e-02, 8.67052004e-03, 7.51445070e-02, 2.80346811e-01,
          0., 6.50288999e-01, 2.97687858e-01, 5.20231202e-02, 0.,
          4.24855500e-01, 2.74566472e-01, 1.41618490e-01 ]
      - [ 1.24271117e-01, 2.00895652e-01, 2.41793782e-01, 5.27082443e-01,
          5.61484039e-01, 2.46281356e-01, 6.28556192e-01, 6.28556192e-01,
          1.92413330e-02, 9.51625705e-02, 1.11023001e-02, 2.85487715e-02,
          1.66534502e-02, 7.93021452e-03, 1.03092780e-02, 1.58604281e-03,
          6.34417124e-03, 1.11023001e-02, 1.03092780e-02, 1.58604281e-03,
          3.96510726e-03, 1.58604290e-02, 1.58604290e-02, 2.29976214e-02,
          1.58604290e-02, 2.93417927e-02, 6.34417124e-03, 7.93021452e-03,
          1.90325137e-02, 1.90325137e-02, 3.96510726e-03, 7.13719288e-03,
          1.66534502e-02, 3.96510726e-03, 2.37906422e-03, 7.13719288e-03,
          7.13719288e-03, 7.93021452e-03, 7.13719288e-03, 7.93021452e-03,
          1.11023001e-02, 1.58604281e-03, 1.58604281e-03, 2.37906422e-03,
          7.93021452e-03, 1.03092780e-02, 2.85487715e-02, 2.14115772e-02,
          9.51625686e-03, 1.03092780e-02, 2.45836638e-02, 7.13719288e-03,
          2.45836638e-02, 2.14115772e-02, 6.34417124e-03, 6.34417124e-03,
          1.58604281e-03, 8.72323569e-03, 6.34417124e-03, 7.93021452e-03,
          7.93021405e-04, 5.55115007e-03, 3.96510726e-03, 4.75812843e-03,
          1.98255349e-02, 6.34417124e-03, 5.63045219e-02, 2.54559875e-01,
          1.66534502e-02, 8.32672492e-02, 8.30293417e-01, 6.97858855e-02,
          0., 1.93497226e-01, 4.97224420e-01, 1.85567006e-01 ]
      - [ 1.40395001e-01, 2.32992321e-01, 2.94416040e-01, 5.59732854e-01,
          5.40849686e-01, 2.95382202e-01, 6.29939437e-01, 6.29939437e-01,
          4.21142578e-03, 8.33333358e-02, 0., 3.26086953e-02,
          1.08695654e-02, 3.62318847e-03, 3.62318847e-03, 7.24637695e-03,
          7.24637695e-03, 3.62318847e-03, 0., 0., 3.62318847e-03,
          3.62318847e-03, 2.53623184e-02, 1.08695654e-02, 0.,
          5.79710156e-02, 3.62318847e-03, 3.62318847e-03, 1.44927539e-02,
          2.17391308e-02, 1.08695654e-02, 1.81159414e-02, 3.62318847e-03,
          0., 3.62318847e-03, 3.62318847e-03, 3.62318847e-03,
          3.62318847e-03, 3.62318847e-03, 7.24637695e-03, 0.,
          3.62318847e-03, 0., 7.24637695e-03, 0., 0., 3.62318829e-02,
          3.26086953e-02, 7.24637695e-03, 1.08695654e-02, 3.62318829e-02,
          1.81159414e-02, 3.98550741e-02, 2.89855078e-02, 7.24637695e-03,
          0., 0., 1.08695654e-02, 1.81159414e-02, 0., 0., 1.44927539e-02,
          3.62318847e-03, 7.24637695e-03, 5.79710156e-02, 3.62318847e-03,
          5.79710156e-02, 2.42753625e-01, 0., 7.24637695e-03,
          9.89130437e-01, 3.62318847e-03, 0., 1.52173907e-01,
          6.55797124e-01, 1.59420297e-01 ]
      - [ 3.84702645e-02, 8.02787244e-02, 6.74769059e-02, 4.34094965e-01,
          7.32555509e-01, 9.12007764e-02, 6.59478307e-01, 6.59478307e-01,
          1.84631348e-03, 2.06611574e-01, 8.26446246e-03, 3.30578499e-02,
          0., 1.65289249e-02, 0., 0., 0., 8.26446246e-03, 0., 0.,
          2.47933883e-02, 8.26446246e-03, 0., 1.65289249e-02,
          8.26446246e-03, 4.13223132e-02, 0., 0., 2.47933883e-02,
          1.65289249e-02, 0., 2.47933883e-02, 8.26446246e-03, 0., 0.,
          8.26446246e-03, 8.26446246e-03, 0., 8.26446246e-03,
          1.65289249e-02, 0., 0., 0., 0., 0., 0., 2.47933883e-02,
          2.47933883e-02, 0., 8.26446246e-03, 2.47933883e-02, 0.,
          2.47933883e-02, 4.13223132e-02, 0., 0., 0., 8.26446246e-03, 0.,
          0., 8.26446246e-03, 8.26446246e-03, 0., 0., 0., 8.26446246e-03,
          4.13223132e-02, 2.89256185e-01, 0., 4.79338855e-01,
          4.46280986e-01, 7.43801668e-02, 0., 1.07438013e-01,
          2.80991733e-01, 2.39669427e-01 ]
      - [ 1.04189888e-01, 1.55025795e-01, 1.02002062e-01, 3.30567598e-01,
          5.46687305e-01, 1.55087724e-01, 6.64103627e-01, 6.64103627e-01,
          2.89916992e-03, 1.31578952e-01, 1.05263162e-02, 3.68421040e-02,
          5.26315812e-03, 1.05263162e-02, 0., 0., 1.05263162e-02,
          5.26315812e-03, 5.26315812e-03, 5.26315812e-03, 2.63157897e-02,
          0., 4.73684222e-02, 5.26315812e-03, 5.26315812e-03,
          5.78947365e-02, 0., 0., 1.57894734e-02, 1.05263162e-02,
          5.26315812e-03, 5.26315812e-03, 5.26315812e-03, 5.26315812e-03,
          5.26315812e-03, 0., 5.26315812e-03, 5.26315812e-03,
          1.05263162e-02, 0., 5.26315812e-03, 0., 0., 0., 1.05263162e-02,
          5.26315812e-03, 3.15789469e-02, 1.05263162e-02, 5.26315812e-03,
          1.05263162e-02, 0., 0., 1.05263162e-02, 2.10526325e-02,
          1.05263162e-02, 1.05263162e-02, 0., 1.57894734e-02, 0.,
          2.10526325e-02, 0., 1.05263162e-02, 0., 5.26315812e-03,
          3.68421040e-02, 2.10526325e-02, 3.68421040e-02, 2.84210533e-01,
          0., 9.63157892e-01, 3.68421040e-02, 0., 0., 3.42105269e-01,
          3.15789461e-01, 1.52631581e-01 ]
      - [ 1.69309467e-01, 2.78961837e-01, 3.52827519e-01, 5.69214761e-01,
          5.56957483e-01, 3.52827519e-01, 6.76290751e-01, 6.76290751e-01,
          3.15856934e-03, 8.69565234e-02, 4.83091781e-03, 4.83091772e-02,
          1.44927539e-02, 0., 2.41545886e-02, 0., 0., 4.83091781e-03,
          1.93236712e-02, 0., 1.44927539e-02, 9.66183562e-03,
          3.86473425e-02, 1.44927539e-02, 2.89855078e-02, 4.34782617e-02,
          4.83091781e-03, 4.83091781e-03, 3.38164233e-02, 4.83091781e-03,
          0., 0., 0., 0., 4.83091781e-03, 1.93236712e-02, 1.44927539e-02,
          2.41545886e-02, 0., 4.83091781e-03, 9.66183562e-03, 0., 0.,
          9.66183562e-03, 4.83091781e-03, 9.66183562e-03, 3.38164233e-02,
          1.93236712e-02, 1.93236712e-02, 9.66183562e-03, 9.66183562e-03,
          0., 1.44927539e-02, 2.41545886e-02, 4.83091781e-03, 0., 0.,
          1.44927539e-02, 4.83091781e-03, 2.41545886e-02, 0.,
          4.83091781e-03, 0., 1.44927539e-02, 2.89855078e-02, 0.,
          4.34782617e-02, 2.27053136e-01, 0., 0., 9.85507250e-01,
          1.44927539e-02, 0., 0., 8.30917895e-01, 9.66183543e-02 ]
      - [ 1.98405653e-01, 2.46943101e-01, 1.72677591e-01, 2.82764375e-01,
          4.05747354e-01, 2.46943101e-01, 6.84605539e-01, 6.84605539e-01,
          4.65393066e-03, 1.37704924e-01, 9.83606558e-03, 9.83606558e-03,
          6.55737706e-03, 3.27868853e-03, 0., 1.63934417e-02,
          6.55737706e-03, 1.31147541e-02, 3.27868853e-03, 0.,
          9.83606558e-03, 1.31147541e-02, 1.31147541e-02, 9.83606558e-03,
          3.27868853e-03, 2.62295082e-02, 6.55737706e-03, 3.27868853e-03,
          3.27868853e-03, 6.55737706e-03, 6.55737706e-03, 3.27868853e-03,
          1.31147541e-02, 6.55737706e-03, 0., 1.96721312e-02,
          9.83606558e-03, 9.83606558e-03, 6.55737706e-03, 6.55737706e-03,
          3.27868853e-03, 6.55737706e-03, 6.55737706e-03, 6.55737706e-03,
          3.27868853e-03, 9.83606558e-03, 2.29508188e-02, 9.83606558e-03,
          1.96721312e-02, 6.55737706e-03, 2.29508188e-02, 9.83606558e-03,
          9.83606558e-03, 3.27868853e-03, 9.83606558e-03, 9.83606558e-03,
          9.83606558e-03, 9.83606558e-03, 6.55737706e-03, 2.95081958e-02,
          1.31147541e-02, 3.27868853e-03, 1.31147541e-02, 9.83606558e-03,
          2.62295082e-02, 6.55737706e-03, 6.88524619e-02, 2.59016395e-01,
          2.95081958e-02, 9.70491827e-01, 0., 0., 0., 5.37704945e-01,
          3.01639348e-01, 6.88524619e-02 ]
      - [ 3.30892771e-01, 3.75511050e-01, 3.71224433e-01, 4.23268676e-01,
          2.33823523e-01, 3.97194415e-01, 7.03945756e-01, 7.03945756e-01,
          5.73730469e-03, 6.91489354e-02, 5.31914877e-03, 3.19148935e-02,
          1.32978726e-02, 2.65957438e-03, 2.65957438e-03, 2.65957438e-03,
          0., 5.31914877e-03, 7.97872338e-03, 0., 7.97872338e-03,
          5.31914877e-03, 2.92553194e-02, 3.19148935e-02, 2.65957438e-03,
          5.05319163e-02, 2.65957438e-03, 2.65957438e-03, 3.45744677e-02,
          2.65957452e-02, 7.97872338e-03, 5.31914877e-03, 1.32978726e-02,
          0., 0., 1.32978726e-02, 5.31914877e-03, 7.97872338e-03,
          2.65957438e-03, 0., 1.06382975e-02, 0., 0., 5.31914877e-03,
          2.65957438e-03, 0., 4.25531901e-02, 2.39361711e-02,
          5.31914877e-03, 2.65957438e-03, 1.59574468e-02, 5.31914877e-03,
          1.59574468e-02, 2.12765951e-02, 7.97872338e-03, 5.31914877e-03,
          0., 2.39361711e-02, 5.31914877e-03, 1.06382975e-02,
          2.65957438e-03, 5.31914877e-03, 1.06382975e-02, 5.31914877e-03,
          4.52127643e-02, 0., 8.24468061e-02, 2.52659589e-01,
          1.11702129e-01, 3.08510631e-01, 4.60106373e-01, 1.19680852e-01,
          0., 8.75000000e-01, 8.24468061e-02, 1.32978726e-02 ]
      - [ 1.56295478e-01, 1.93192750e-01, 1.20261438e-01, 2.63115048e-01,
          4.69675660e-01, 1.93192750e-01, 7.16882885e-01, 7.16882885e-01,
          2.42614746e-03, 1.25786170e-01, 1.25786159e-02, 4.40251566e-02,
          1.25786159e-02, 6.28930796e-03, 1.25786159e-02, 6.28930796e-03,
          2.51572318e-02, 1.25786159e-02, 6.28930796e-03, 6.28930796e-03,
          1.25786159e-02, 6.28930796e-03, 1.25786159e-02, 1.88679248e-02,
          1.25786159e-02, 1.88679248e-02, 1.25786159e-02, 1.25786159e-02,
          5.66037744e-02, 2.51572318e-02, 0., 0., 2.51572318e-02,
          6.28930796e-03, 0., 1.25786159e-02, 1.25786159e-02,
          1.25786159e-02, 1.88679248e-02, 1.25786159e-02, 2.51572318e-02,
          6.28930796e-03, 1.25786159e-02, 6.28930796e-03, 0.,
          1.88679248e-02, 6.28930796e-03, 6.28930796e-03, 0.,
          6.28930796e-03, 1.88679248e-02, 1.25786159e-02, 0.,
          1.88679248e-02, 0., 1.25786159e-02, 0., 6.28930796e-03,
          6.28930796e-03, 0., 6.28930796e-03, 0., 0., 0., 0.,
          6.28930796e-03, 3.77358496e-02, 2.26415098e-01, 4.40251566e-02,
          9.24528301e-01, 3.14465426e-02, 0., 0., 3.52201253e-01,
          4.65408802e-01, 8.17610100e-02 ]
      - [ 3.29754889e-01, 3.88460785e-01, 4.11401957e-01, 4.96921569e-01,
          2.70686269e-01, 4.22431380e-01, 7.20117211e-01, 7.20117211e-01,
          6.10351563e-03, 6.25000000e-02, 0., 2.25000009e-02,
          4.99999989e-03, 7.49999983e-03, 7.49999983e-03, 0.,
          2.49999994e-03, 4.99999989e-03, 2.49999994e-03, 0.,
          1.25000002e-02, 2.49999994e-03, 3.24999988e-02, 1.49999997e-02,
          2.49999994e-03, 2.99999993e-02, 4.99999989e-03, 7.49999983e-03,
          3.50000001e-02, 4.99999989e-03, 0., 2.49999994e-03,
          2.49999994e-03, 2.49999994e-03, 0., 4.99999989e-03, 0.,
          2.49999994e-03, 2.49999994e-03, 2.49999994e-03, 7.49999983e-03,
          7.49999983e-03, 0., 9.99999978e-03, 1.75000001e-02,
          2.49999994e-03, 5.75000010e-02, 8.74999985e-02, 1.25000002e-02,
          1.25000002e-02, 3.99999991e-02, 7.49999983e-03, 3.75000015e-02,
          4.25000004e-02, 7.49999983e-03, 4.99999989e-03, 0.,
          7.49999983e-03, 9.99999978e-03, 7.49999983e-03, 2.49999994e-03,
          7.49999983e-03, 4.99999989e-03, 0., 4.25000004e-02,
          2.49999994e-03, 5.49999997e-02, 2.22499996e-01, 3.24999988e-02,
          1.55000001e-01, 7.27500021e-01, 8.50000009e-02, 0.,
          7.72499979e-01, 1.77499995e-01, 2.25000009e-02 ]
      - [ 1.74534693e-01, 2.52053440e-01, 1.06772862e-01, 2.64470816e-01,
          6.33634806e-01, 2.52053440e-01, 7.75509059e-01, 7.75509059e-01,
          1.08184814e-02, 1.36812419e-01, 7.05218595e-03, 1.83356833e-02,
          8.46262369e-03, 8.46262369e-03, 7.05218595e-03, 5.64174913e-03,
          2.11565588e-02, 1.69252474e-02, 4.23131185e-03, 8.46262369e-03,
          1.55148096e-02, 8.46262369e-03, 1.41043719e-02, 1.26939351e-02,
          8.46262369e-03, 1.55148096e-02, 4.23131185e-03, 1.41043719e-02,
          7.05218595e-03, 1.12834983e-02, 8.46262369e-03, 4.23131185e-03,
          7.05218595e-03, 5.64174913e-03, 8.46262369e-03, 1.69252474e-02,
          7.05218595e-03, 2.82087438e-02, 2.11565588e-02, 4.23131185e-03,
          5.64174913e-03, 2.82087456e-03, 7.05218595e-03, 9.87306051e-03,
          7.05218595e-03, 4.23131185e-03, 8.46262369e-03, 4.23131185e-03,
          8.46262369e-03, 1.41043728e-03, 1.69252474e-02, 1.41043728e-03,
          1.41043728e-03, 1.41043728e-03, 2.82087456e-03, 2.82087456e-03,
          4.23131185e-03, 4.23131185e-03, 1.41043728e-03, 2.39774324e-02,
          1.12834983e-02, 1.26939351e-02, 5.64174913e-03, 4.23131185e-03,
          7.05218595e-03, 2.82087456e-03, 7.89844841e-02, 2.91960508e-01,
          2.82087456e-03, 9.97179151e-01, 0., 0., 0., 9.02679861e-02,
          4.79548663e-01, 3.17348391e-01 ]
      - [ 2.09441930e-01, 2.48612374e-01, 1.95316747e-01, 3.18604827e-01,
          3.29600304e-01, 2.48996988e-01, 7.50653565e-01, 7.50653565e-01,
          7.93457031e-03, 1.03846155e-01, 3.84615385e-03, 2.11538468e-02,
          3.84615385e-03, 9.61538497e-03, 1.92307699e-02, 1.92307692e-03,
          1.15384618e-02, 2.11538468e-02, 5.76923089e-03, 3.84615385e-03,
          9.61538497e-03, 1.34615386e-02, 2.50000004e-02, 1.53846154e-02,
          1.92307692e-03, 3.07692308e-02, 7.69230770e-03, 9.61538497e-03,
          2.50000004e-02, 2.30769236e-02, 1.92307699e-02, 9.61538497e-03,
          9.61538497e-03, 0., 3.84615385e-03, 9.61538497e-03,
          7.69230770e-03, 2.11538468e-02, 7.69230770e-03, 5.76923089e-03,
          1.73076931e-02, 3.84615385e-03, 1.92307692e-03, 7.69230770e-03,
          5.76923089e-03, 1.15384618e-02, 2.69230772e-02, 1.34615386e-02,
          0., 0., 2.50000004e-02, 5.76923089e-03, 1.53846154e-02,
          2.69230772e-02, 3.84615385e-03, 1.92307692e-03, 3.84615385e-03,
          7.69230770e-03, 1.92307692e-03, 1.15384618e-02, 0.,
          1.92307692e-03, 3.84615385e-03, 5.76923089e-03, 2.88461540e-02,
          7.69230770e-03, 4.61538471e-02, 2.51923084e-01, 1.40384614e-01,
          6.46153867e-01, 2.13461533e-01, 0., 0., 7.36538470e-01,
          1.40384614e-01, 5.57692312e-02 ]
      - [ 2.28913441e-01, 3.08349580e-01, 3.41761470e-01, 5.44824481e-01,
          3.37940097e-01, 3.42947662e-01, 7.74076879e-01, 7.74076879e-01,
          2.20947266e-02, 9.59944725e-02, 1.03591159e-02, 3.38397808e-02,
          8.28729291e-03, 7.59668509e-03, 7.59668509e-03, 6.21546945e-03,
          4.83425427e-03, 4.83425427e-03, 7.59668509e-03, 3.45303863e-03,
          6.90607727e-03, 5.52486209e-03, 2.20994484e-02, 1.45027628e-02,
          7.59668509e-03, 2.76243091e-02, 7.59668509e-03, 4.83425427e-03,
          2.41712704e-02, 1.45027628e-02, 4.14364645e-03, 8.97790026e-03,
          1.10497242e-02, 1.38121552e-03, 2.07182323e-03, 8.28729291e-03,
          4.14364645e-03, 3.45303863e-03, 5.52486209e-03, 1.10497242e-02,
          2.14088392e-02, 2.76243105e-03, 2.76243105e-03, 1.03591159e-02,
          5.52486209e-03, 1.17403315e-02, 4.41988967e-02, 7.94198886e-02,
          1.31215472e-02, 9.66850854e-03, 2.20994484e-02, 7.59668509e-03,
          2.48618778e-02, 1.58839785e-02, 7.59668509e-03, 6.21546945e-03,
          1.38121552e-03, 1.45027628e-02, 1.38121552e-03, 5.52486209e-03,
          6.90607761e-04, 4.14364645e-03, 2.76243105e-03, 4.14364645e-03,
          1.93370171e-02, 4.14364645e-03, 3.72928195e-02, 2.33425409e-01,
          0., 1.10497242e-02, 9.81353581e-01, 7.59668509e-03, 0.,
          3.70165735e-01, 6.29834235e-01, 0. ]
      - [ 4.12254900e-01, 4.15931374e-01, 3.57315242e-01, 1.82880849e-01,
          1.59785062e-01, 4.21097279e-01, 7.71503150e-01, 7.71503150e-01,
          3.17382813e-03, 7.69230798e-02, 9.61538497e-03, 9.61538497e-03,
          4.80769249e-03, 0., 1.44230770e-02, 1.44230770e-02,
          9.61538497e-03, 9.61538497e-03, 4.80769249e-03, 4.80769249e-03,
          4.80769249e-03, 4.80769249e-03, 9.61538497e-03, 9.61538497e-03,
          2.40384620e-02, 2.40384620e-02, 9.61538497e-03, 4.80769249e-03,
          1.92307699e-02, 4.80769249e-03, 0., 9.61538497e-03,
          1.44230770e-02, 1.44230770e-02, 0., 2.40384620e-02, 0.,
          1.44230770e-02, 4.80769249e-03, 9.61538497e-03, 4.80769249e-03,
          4.80769249e-03, 4.80769249e-03, 4.80769249e-03, 0.,
          4.80769249e-03, 4.80769239e-02, 1.92307699e-02, 2.40384620e-02,
          4.80769249e-03, 1.92307699e-02, 9.61538497e-03, 4.32692319e-02,
          3.36538479e-02, 1.44230770e-02, 1.44230770e-02, 0.,
          2.40384620e-02, 0., 1.92307699e-02, 0., 0., 4.80769249e-03,
          1.92307699e-02, 1.44230770e-02, 0., 5.76923080e-02,
          2.40384609e-01, 7.01923072e-01, 2.98076928e-01, 0., 0., 0.,
          9.90384638e-01, 9.61538497e-03, 0. ]
      - [ 2.68485367e-01, 2.95140654e-01, 2.60528564e-01, 3.07833672e-01,
          2.81121522e-01, 2.95405895e-01, 7.74928272e-01, 7.74928272e-01,
          3.15856934e-03, 8.69565234e-02, 0., 2.89855078e-02,
          3.86473425e-02, 0., 9.66183562e-03, 4.83091781e-03,
          4.83091781e-03, 4.83091781e-03, 0., 4.83091781e-03, 0., 0.,
          2.89855078e-02, 3.38164233e-02, 0., 9.66183562e-03,
          1.44927539e-02, 9.66183562e-03, 2.89855078e-02, 2.41545886e-02,
          0., 4.83091781e-03, 3.86473425e-02, 0., 4.83091781e-03, 0., 0.,
          9.66183562e-03, 2.41545886e-02, 4.83091781e-03, 0., 0., 0.,
          4.83091781e-03, 0., 4.83091781e-03, 5.31400964e-02,
          3.38164233e-02, 3.86473425e-02, 9.66183562e-03, 4.34782617e-02,
          4.83091781e-03, 1.93236712e-02, 2.89855078e-02, 4.83091781e-03,
          0., 0., 4.83091781e-03, 4.83091781e-03, 1.93236712e-02, 0.,
          4.83091781e-03, 0., 9.66183562e-03, 2.41545886e-02, 0.,
          6.28019348e-02, 2.02898547e-01, 7.72946849e-02, 8.16425145e-01,
          1.06280193e-01, 0., 0., 7.14975834e-01, 1.49758458e-01,
          3.38164233e-02 ]
      - [ 1.79962397e-01, 2.55224288e-01, 2.76255697e-01, 5.34246564e-01,
          3.73838305e-01, 2.79022306e-01, 7.72581339e-01, 7.72581339e-01,
          2.22778320e-03, 8.90410990e-02, 0., 5.47945201e-02,
          1.36986300e-02, 6.84931502e-03, 0., 3.42465751e-02,
          1.36986300e-02, 0., 6.84931502e-03, 6.84931502e-03,
          6.84931502e-03, 0., 2.05479451e-02, 0., 6.84931502e-03,
          4.10958901e-02, 1.36986300e-02, 1.36986300e-02, 6.84931502e-03,
          1.36986300e-02, 1.36986300e-02, 0., 2.05479451e-02, 0., 0., 0.,
          0., 2.05479451e-02, 6.84931502e-03, 0., 0., 6.84931502e-03,
          3.42465751e-02, 1.36986300e-02, 0., 1.36986300e-02,
          2.73972601e-02, 2.73972601e-02, 1.36986300e-02, 0.,
          1.36986300e-02, 6.84931502e-03, 1.36986300e-02, 6.84931502e-03,
          0., 6.84931502e-03, 6.84931502e-03, 6.84931502e-03, 0.,
          3.42465751e-02, 0., 0., 1.36986300e-02, 2.05479451e-02,
          2.05479451e-02, 0., 6.16438352e-02, 2.39726022e-01, 0., 0.,
          9.79452074e-01, 2.05479451e-02, 0., 3.01369876e-01,
          6.78082168e-01, 2.05479451e-02 ]
      - [ 2.21746877e-01, 2.76394188e-01, 1.63992867e-01, 2.55971491e-01,
          4.99193609e-01, 2.76428133e-01, 8.00476849e-01, 8.00476849e-01,
          3.52478027e-03, 6.49350658e-02, 4.32900432e-03, 0., 0.,
          1.29870130e-02, 4.32900432e-03, 1.29870130e-02, 4.76190485e-02,
          1.73160173e-02, 8.65800865e-03, 4.32900432e-03, 0.,
          2.16450226e-02, 1.73160173e-02, 8.65800865e-03, 2.16450226e-02,
          4.32900432e-03, 8.65800865e-03, 1.29870130e-02, 2.59740259e-02,
          1.29870130e-02, 1.29870130e-02, 8.65800865e-03, 0.,
          8.65800865e-03, 8.65800865e-03, 2.59740259e-02, 1.73160173e-02,
          2.59740259e-02, 4.32900432e-03, 0., 4.32900432e-03, 0.,
          8.65800865e-03, 8.65800865e-03, 8.65800865e-03, 0.,
          2.59740259e-02, 1.29870130e-02, 1.29870130e-02, 4.32900432e-03,
          4.32900432e-03, 0., 1.29870130e-02, 1.29870130e-02,
          8.65800865e-03, 0., 8.65800865e-03, 8.65800865e-03,
          4.32900432e-03, 1.29870130e-02, 4.32900432e-03, 8.65800865e-03,
          1.29870130e-02, 4.32900432e-03, 8.65800865e-03, 1.29870130e-02,
          7.35930726e-02, 2.90043294e-01, 1.03896104e-01, 8.96103919e-01,
          0., 0., 0., 2.46753246e-01, 5.58441579e-01, 1.03896104e-01 ]
      - [ 2.00238273e-01, 2.74152398e-01, 1.50310248e-01, 2.73417711e-01,
          5.22988319e-01, 2.74152398e-01, 7.80577540e-01, 7.80577540e-01,
          6.02722168e-03, 8.35443065e-02, 2.53164559e-03, 1.01265823e-02,
          2.53164559e-03, 1.01265823e-02, 1.01265823e-02, 5.06329117e-03,
          1.01265823e-02, 1.26582282e-02, 1.26582282e-02, 2.53164559e-03,
          5.06329117e-03, 1.01265823e-02, 2.78481022e-02, 1.26582282e-02,
          7.59493653e-03, 5.06329117e-03, 7.59493653e-03, 7.59493653e-03,
          1.77215189e-02, 1.01265823e-02, 1.26582282e-02, 7.59493653e-03,
          1.26582282e-02, 7.59493653e-03, 2.02531647e-02, 1.26582282e-02,
          5.06329117e-03, 2.02531647e-02, 1.01265823e-02, 5.06329117e-03,
          7.59493653e-03, 5.06329117e-03, 2.53164559e-03, 1.01265823e-02,
          7.59493653e-03, 7.59493653e-03, 2.27848105e-02, 7.59493653e-03,
          1.26582282e-02, 1.01265823e-02, 1.77215189e-02, 7.59493653e-03,
          2.53164559e-03, 2.53164559e-03, 1.51898731e-02, 1.51898731e-02,
          5.06329117e-03, 1.01265823e-02, 1.01265823e-02, 2.02531647e-02,
          2.53164559e-03, 0., 7.59493653e-03, 1.01265823e-02,
          1.77215189e-02, 2.53164559e-03, 7.34177232e-02, 2.98734188e-01,
          0., 9.97468352e-01, 2.53164559e-03, 0., 0., 2.05063298e-01,
          5.46835423e-01, 1.74683541e-01 ]
      - [ 3.56173486e-01, 3.73547226e-01, 3.35828871e-01, 2.47557938e-01,
          1.15888298e-01, 3.73547226e-01, 8.08380663e-01, 8.08380663e-01,
          2.51770020e-03, 7.27272704e-02, 1.21212117e-02, 6.06060587e-03,
          1.81818176e-02, 1.21212117e-02, 1.21212117e-02, 6.06060587e-03,
          1.81818176e-02, 1.21212117e-02, 6.06060587e-03, 6.06060587e-03,
          0., 0., 6.06060587e-03, 0., 6.06060587e-03, 1.21212117e-02,
          1.81818176e-02, 1.81818176e-02, 6.06060587e-03, 0.,
          6.06060587e-03, 1.21212117e-02, 1.21212117e-02, 0.,
          1.21212117e-02, 0., 6.06060587e-03, 0., 1.81818176e-02,
          2.42424235e-02, 1.81818176e-02, 1.21212117e-02, 0., 0.,
          1.21212117e-02, 1.21212117e-02, 2.42424235e-02, 1.81818176e-02,
          1.81818176e-02, 6.06060587e-03, 2.42424235e-02, 1.81818176e-02,
          1.81818176e-02, 2.42424235e-02, 1.21212117e-02, 6.06060587e-03,
          0., 1.21212117e-02, 6.06060587e-03, 1.21212117e-02, 0.,
          6.06060587e-03, 0., 0., 1.81818176e-02, 1.21212117e-02,
          9.09090936e-02, 2.78787881e-01, 3.09090912e-01, 6.30303025e-01,
          6.06060624e-02, 0., 0., 9.63636339e-01, 3.63636352e-02, 0. ]
      - [ 2.51358867e-01, 3.04505080e-01, 1.95605323e-01, 2.44241178e-01,
          3.99085313e-01, 3.04873049e-01, 8.10761571e-01, 8.10761571e-01,
          5.69152832e-03, 7.50670210e-02, 1.07238609e-02, 8.04289524e-03,
          2.68096523e-03, 1.07238609e-02, 1.34048257e-02, 2.68096523e-03,
          1.87667552e-02, 2.14477219e-02, 5.36193047e-03, 1.07238609e-02,
          5.36193047e-03, 1.34048257e-02, 1.34048257e-02, 2.14477219e-02,
          1.07238609e-02, 2.41286866e-02, 1.34048257e-02, 1.07238609e-02,
          1.87667552e-02, 1.60857905e-02, 2.68096523e-03, 1.07238609e-02,
          2.68096523e-03, 1.07238609e-02, 1.07238609e-02, 1.34048257e-02,
          1.34048257e-02, 2.14477219e-02, 8.04289524e-03, 1.07238609e-02,
          1.87667552e-02, 5.36193047e-03, 2.68096523e-03, 2.68096523e-03,
          1.07238609e-02, 1.60857905e-02, 1.60857905e-02, 1.07238609e-02,
          1.34048257e-02, 0., 1.60857905e-02, 5.36193047e-03,
          5.36193047e-03, 1.34048257e-02, 8.04289524e-03, 8.04289524e-03,
          2.68096523e-03, 8.04289524e-03, 1.07238609e-02, 1.87667552e-02,
          2.68096523e-03, 8.04289524e-03, 8.04289524e-03, 5.36193047e-03,
          1.34048257e-02, 5.36193047e-03, 6.16621971e-02, 2.70777494e-01,
          1.68900803e-01, 8.31099212e-01, 0., 0., 0., 3.99463803e-01,
          5.04021466e-01, 7.50670210e-02 ]
      - [ 1.74031854e-01, 2.60287702e-01, 1.22748360e-01, 2.76892602e-01,
          5.91979682e-01, 2.60301709e-01, 8.54316831e-01, 8.54316831e-01,
          1.28326416e-02, 8.91795456e-02, 2.02140305e-02, 1.07015455e-02,
          3.56718199e-03, 8.32342450e-03, 5.94530301e-03, 2.37812125e-03,
          2.49702726e-02, 8.32342450e-03, 8.32342450e-03, 1.18906060e-02,
          8.32342450e-03, 1.07015455e-02, 3.56718199e-03, 5.94530301e-03,
          9.51248500e-03, 1.30796675e-02, 9.51248500e-03, 5.94530301e-03,
          8.32342450e-03, 3.56718199e-03, 5.94530301e-03, 9.51248500e-03,
          1.18906060e-02, 1.07015455e-02, 1.07015455e-02, 7.13436399e-03,
          9.51248500e-03, 1.90249700e-02, 2.73483954e-02, 5.94530301e-03,
          4.75624250e-03, 4.75624250e-03, 2.37812125e-03, 1.18906063e-03,
          4.75624250e-03, 1.07015455e-02, 2.37812125e-03, 3.56718199e-03,
          5.94530301e-03, 9.51248500e-03, 9.51248500e-03, 8.32342450e-03,
          3.56718199e-03, 2.37812125e-03, 7.13436399e-03, 1.78359095e-02,
          1.90249700e-02, 1.07015455e-02, 7.13436399e-03, 2.49702726e-02,
          4.75624250e-03, 8.32342450e-03, 1.07015455e-02, 7.13436399e-03,
          1.18906060e-02, 7.13436399e-03, 6.06420934e-02, 3.38882297e-01,
          1.18906060e-02, 9.88109410e-01, 0., 0., 0., 5.94530329e-02,
          6.43281817e-01, 2.05707490e-01 ]
      - [ 3.88852566e-01, 4.06753808e-01, 3.48729134e-01, 2.17864931e-01,
          1.42193168e-01, 4.06753808e-01, 8.79267931e-01, 8.79267931e-01,
          1.64794922e-03, 1.01851851e-01, 0., 9.25925933e-03, 0., 0.,
          9.25925933e-03, 0., 0., 1.85185187e-02, 2.77777780e-02,
          9.25925933e-03, 0., 1.85185187e-02, 5.55555560e-02,
          3.70370373e-02, 1.85185187e-02, 4.62962948e-02, 1.85185187e-02,
          1.85185187e-02, 1.85185187e-02, 9.25925933e-03, 1.85185187e-02,
          0., 0., 1.85185187e-02, 0., 0., 0., 0., 0., 0., 9.25925933e-03,
          0., 9.25925933e-03, 9.25925933e-03, 9.25925933e-03, 0., 0., 0.,
          9.25925933e-03, 0., 5.55555560e-02, 0., 9.25925933e-03, 0.,
